booster[0]:
0:[f0<6] yes=1,no=2,missing=2
	1:[f0<5] yes=3,no=4,missing=4
		3:[f0<3] yes=7,no=8,missing=8
			7:[f0<2] yes=15,no=16,missing=16
				15:[f36<0.135628] yes=31,no=32,missing=32
					31:[f68<2] yes=63,no=64,missing=63
						63:[f25<0.000889] yes=127,no=128,missing=127
							127:leaf=0.263112
							128:leaf=0.253564
						64:[f44<183] yes=129,no=130,missing=129
							129:leaf=0.271604
							130:leaf=0.259459
					32:[f36<0.167297] yes=65,no=66,missing=66
						65:[f25<0.000783] yes=131,no=132,missing=131
							131:leaf=0.269878
							132:leaf=0.261251
						66:[f44<59] yes=133,no=134,missing=133
							133:leaf=0.272579
							134:leaf=0.267431
				16:[f36<0.149916] yes=33,no=34,missing=33
					33:[f13<0.329999] yes=67,no=68,missing=68
						67:[f19<0.017899] yes=135,no=136,missing=135
							135:leaf=0.260965
							136:leaf=-0.18
						68:[f68<2392] yes=137,no=138,missing=138
							137:leaf=0.242678
							138:leaf=0.226203
					34:[f36<0.201247] yes=69,no=70,missing=70
						69:[f8<0.999999] yes=139,no=140,missing=140
							139:leaf=0.265997
							140:leaf=0.240334
						70:[f36<0.245983] yes=141,no=142,missing=142
							141:leaf=0.249643
							142:leaf=0.256752
			8:[f36<0.149916] yes=17,no=18,missing=18
				17:[f68<2392] yes=35,no=36,missing=36
					35:[f68<18] yes=71,no=72,missing=72
						71:[f25<0.00029] yes=143,no=144,missing=143
							143:leaf=0.231545
							144:leaf=0.214693
						72:[f18<0.013867] yes=145,no=146,missing=146
							145:leaf=-0.06
							146:leaf=0.267191
					36:[f36<0.126879] yes=73,no=74,missing=74
						73:[f25<0.000477] yes=147,no=148,missing=147
							147:leaf=0.20264
							148:leaf=0.184554
						74:[f13<0.329999] yes=149,no=150,missing=150
							149:leaf=0.236551
							150:leaf=0.200861
				18:[f36<0.196911] yes=37,no=38,missing=38
					37:[f8<0.999999] yes=75,no=76,missing=76
						75:[f18<0.013867] yes=151,no=152,missing=152
							151:leaf=-0.2
							152:leaf=0.247438
						76:[f0<4] yes=153,no=154,missing=154
							153:leaf=0.220596
							154:leaf=0.20994
					38:[f0<4] yes=77,no=78,missing=78
						77:[f50<55] yes=155,no=156,missing=155
							155:leaf=0.226768
							156:leaf=0.238724
						78:[f18<0.055777] yes=157,no=158,missing=158
							157:leaf=0.221662
							158:leaf=0.232562
		4:[f36<0.147885] yes=9,no=10,missing=10
			9:[f68<2] yes=19,no=20,missing=19
				19:[f44<121] yes=39,no=40,missing=39
					39:[f36<0.129659] yes=79,no=80,missing=80
						79:[f13<0.999999] yes=159,no=160,missing=160
							159:leaf=0.147245
							160:leaf=0.0752228
						80:[f3<43] yes=161,no=162,missing=161
							161:leaf=0.0958239
							162:leaf=0.12793
					40:[f36<0.122359] yes=81,no=82,missing=82
						81:[f36<0.09416] yes=163,no=164,missing=164
							163:leaf=0.0149135
							164:leaf=0.0501838
						82:[f67<0.624999] yes=165,no=166,missing=165
							165:leaf=0.0896581
							166:leaf=0.0658884
				20:[f25<0.003183] yes=41,no=42,missing=41
					41:[f2<131.359] yes=83,no=84,missing=84
						83:[f3<40] yes=167,no=168,missing=168
							167:leaf=0.168293
							168:leaf=-0.173684
						84:[f70<3] yes=169,no=170,missing=170
							169:leaf=0.147406
							170:leaf=0.191795
					42:[f2<237.078] yes=85,no=86,missing=86
						85:[f36<0.124009] yes=171,no=172,missing=172
							171:leaf=-0.2
							172:leaf=0.0733333
						86:[f69<4] yes=173,no=174,missing=173
							173:leaf=0.112172
							174:leaf=0.174388
			10:[f36<0.201247] yes=21,no=22,missing=22
				21:[f68<2] yes=43,no=44,missing=43
					43:[f44<96] yes=87,no=88,missing=88
						87:[f24<3e-06] yes=175,no=176,missing=175
							175:leaf=0.141403
							176:leaf=0.112586
						88:[f18<0.035251] yes=177,no=178,missing=178
							177:leaf=0.0887902
							178:leaf=0.107606
					44:[f68<15] yes=89,no=90,missing=90
						89:[f4<1102] yes=179,no=180,missing=179
							179:leaf=0.155474
							180:leaf=-0.0942857
						90:[f51<1319] yes=181,no=182,missing=182
							181:leaf=0.238088
							182:leaf=-0.24
				22:[f36<0.234263] yes=45,no=46,missing=46
					45:[f67<0.679999] yes=91,no=92,missing=92
						91:[f3<38] yes=183,no=184,missing=184
							183:leaf=0.116949
							184:leaf=0.159003
						92:[f53<175] yes=185,no=186,missing=185
							185:leaf=0.132177
							186:leaf=0.0830792
					46:[f18<0.057745] yes=93,no=94,missing=94
						93:[f8<49] yes=187,no=188,missing=187
							187:leaf=0.150393
							188:leaf=0.106852
						94:[f18<0.099454] yes=189,no=190,missing=189
							189:leaf=0.167404
							190:leaf=0.206197
	2:[f0<21] yes=5,no=6,missing=6
		5:[f0<11] yes=11,no=12,missing=12
			11:[f36<0.160797] yes=23,no=24,missing=24
				23:[f68<77] yes=47,no=48,missing=48
					47:[f27<192] yes=95,no=96,missing=95
						95:[f1<380.657] yes=191,no=192,missing=192
							191:leaf=-0.021645
							192:leaf=-0.0638547
						96:[f0<8] yes=193,no=194,missing=194
							193:leaf=-0.0702778
							194:leaf=-0.103928
					48:[f0<8] yes=97,no=98,missing=98
						97:[f26<31] yes=195,no=196,missing=195
							195:leaf=-0.104317
							196:leaf=-0.139417
						98:[f36<0.131481] yes=197,no=198,missing=198
							197:leaf=-0.173722
							198:leaf=-0.153119
				24:[f68<2392] yes=49,no=50,missing=50
					49:[f3<47] yes=99,no=100,missing=100
						99:[f26<730] yes=199,no=200,missing=199
							199:leaf=-0.0398793
							200:leaf=-0.0744421
						100:[f46<0.559632] yes=201,no=202,missing=202
							201:leaf=-0.0741036
							202:leaf=0.0195437
					50:[f36<0.21822] yes=101,no=102,missing=102
						101:[f0<8] yes=203,no=204,missing=204
							203:leaf=-0.0976784
							204:leaf=-0.127077
						102:[f1<458.822] yes=205,no=206,missing=206
							205:leaf=-0.062427
							206:leaf=-0.0895353
			12:[f36<0.155188] yes=25,no=26,missing=25
				25:[f68<2392] yes=51,no=52,missing=52
					51:[f69<28] yes=103,no=104,missing=104
						103:[f2<2207.94] yes=207,no=208,missing=208
							207:leaf=-0.132615
							208:leaf=-0.0981757
						104:[f54<4] yes=209,no=210,missing=210
							209:leaf=-0.0757313
							210:leaf=-0.150765
					52:[f0<15] yes=105,no=106,missing=106
						105:[f36<0.113735] yes=211,no=212,missing=211
							211:leaf=-0.205694
							212:leaf=-0.184508
						106:[f36<0.129659] yes=213,no=214,missing=214
							213:leaf=-0.220311
							214:leaf=-0.202356
				26:[f68<2392] yes=53,no=54,missing=54
					53:[f2<1917.36] yes=107,no=108,missing=108
						107:[f70<607] yes=215,no=216,missing=216
							215:leaf=-0.0932748
							216:leaf=-0.136574
						108:[f8<40] yes=217,no=218,missing=217
							217:leaf=-0.0713736
							218:leaf=-0.109449
					54:[f36<0.21822] yes=109,no=110,missing=110
						109:[f0<15] yes=219,no=220,missing=220
							219:leaf=-0.159959
							220:leaf=-0.183325
						110:[f18<0.051324] yes=221,no=222,missing=221
							221:leaf=-0.159436
							222:leaf=-0.126533
		6:[f68<2392] yes=13,no=14,missing=14
			13:[f0<26] yes=27,no=28,missing=28
				27:[f70<19] yes=55,no=56,missing=56
					55:[f18<0.046426] yes=111,no=112,missing=112
						111:[f8<6] yes=223,no=224,missing=223
							223:leaf=-0.131275
							224:leaf=-0.177826
						112:[f13<3.02] yes=225,no=226,missing=225
							225:leaf=-0.0969334
							226:leaf=-0.189552
					56:[f59<11] yes=113,no=114,missing=113
						113:[f53<152] yes=227,no=228,missing=228
							227:leaf=-0.159791
							228:leaf=-0.0210332
						114:[f2<4000] yes=229,no=230,missing=230
							229:leaf=-0.214217
							230:leaf=-0.175629
				28:[f69<3] yes=57,no=58,missing=57
					57:[f2<945.331] yes=115,no=116,missing=116
						115:[f1<1480.59] yes=231,no=232,missing=232
							231:leaf=-0.248479
							232:leaf=-0.189671
						116:[f49<30] yes=233,no=234,missing=234
							233:leaf=-0.152551
							234:leaf=-0.198685
					58:[f36<0.169346] yes=117,no=118,missing=118
						117:[f69<19] yes=235,no=236,missing=236
							235:leaf=-0.183182
							236:leaf=0.12
						118:[f65<0.499999] yes=237,no=238,missing=237
							237:leaf=-0.130872
							238:leaf=0.0652174
			14:[f36<0.167297] yes=29,no=30,missing=30
				29:[f0<24] yes=59,no=60,missing=60
					59:[f36<0.122359] yes=119,no=120,missing=120
						119:[f1<336.612] yes=239,no=240,missing=240
							239:leaf=-0.231843
							240:leaf=-0.250387
						120:[f0<22] yes=241,no=242,missing=242
							241:leaf=-0.222881
							242:leaf=-0.236371
					60:[f36<0.124009] yes=121,no=122,missing=122
						121:[f1<542.211] yes=243,no=244,missing=244
							243:leaf=-0.256521
							244:leaf=-0.265816
						122:[f0<28] yes=245,no=246,missing=246
							245:leaf=-0.248774
							246:leaf=-0.258053
				30:[f0<26] yes=61,no=62,missing=62
					61:[f18<0.049894] yes=123,no=124,missing=124
						123:[f26<44] yes=247,no=248,missing=248
							247:leaf=-0.207322
							248:leaf=-0.226507
						124:[f36<0.188797] yes=249,no=250,missing=249
							249:leaf=-0.215566
							250:leaf=-0.193868
					62:[f18<0.047446] yes=125,no=126,missing=126
						125:[f0<34] yes=251,no=252,missing=252
							251:leaf=-0.249759
							252:leaf=-0.237648
						126:[f36<0.21822] yes=253,no=254,missing=253
							253:leaf=-0.23506
							254:leaf=-0.216584
booster[1]:
0:[f0<6] yes=1,no=2,missing=2
	1:[f0<5] yes=3,no=4,missing=4
		3:[f0<3] yes=7,no=8,missing=8
			7:[f0<2] yes=15,no=16,missing=16
				15:[f33<8] yes=31,no=32,missing=31
					31:[f36<0.155366] yes=63,no=64,missing=64
						63:[f68<3] yes=127,no=128,missing=127
							127:leaf=0.205171
							128:leaf=0.220047
						64:[f36<0.206635] yes=129,no=130,missing=130
							129:leaf=0.214525
							130:leaf=0.221051
					32:[f9<3] yes=65,no=66,missing=65
						65:[f22<0.014287] yes=131,no=132,missing=132
							131:leaf=0.0195752
							132:leaf=0.227313
						66:[f23<0.00937] yes=133,no=134,missing=134
							133:leaf=0.220438
							134:leaf=0.21284
				16:[f36<0.137432] yes=33,no=34,missing=33
					33:[f33<4] yes=67,no=68,missing=67
						67:[f68<1775] yes=135,no=136,missing=136
							135:leaf=0.195498
							136:leaf=0.173389
						68:[f39<0.000289] yes=137,no=138,missing=137
							137:leaf=0.208117
							138:leaf=0.192706
					34:[f36<0.189124] yes=69,no=70,missing=70
						69:[f33<2] yes=139,no=140,missing=139
							139:leaf=0.18839
							140:leaf=0.202243
						70:[f36<0.234736] yes=141,no=142,missing=142
							141:leaf=0.199497
							142:leaf=0.205779
			8:[f36<0.157144] yes=17,no=18,missing=18
				17:[f33<4] yes=35,no=36,missing=35
					35:[f36<0.125607] yes=71,no=72,missing=72
						71:[f68<1775] yes=143,no=144,missing=144
							143:leaf=0.170091
							144:leaf=0.143629
						72:[f68<1775] yes=145,no=146,missing=146
							145:leaf=0.17644
							146:leaf=0.158626
					36:[f39<0.000425] yes=73,no=74,missing=73
						73:[f9<224] yes=147,no=148,missing=148
							147:leaf=0.176005
							148:leaf=0.190342
						74:[f0<4] yes=149,no=150,missing=150
							149:leaf=0.171249
							150:leaf=0.156545
				18:[f36<0.192922] yes=37,no=38,missing=37
					37:[f0<4] yes=75,no=76,missing=76
						75:[f7<0.499999] yes=151,no=152,missing=152
							151:leaf=0.209845
							152:leaf=0.178012
						76:[f9<150] yes=153,no=154,missing=154
							153:leaf=0.166093
							154:leaf=0.175728
					38:[f36<0.234736] yes=77,no=78,missing=78
						77:[f0<4] yes=155,no=156,missing=156
							155:leaf=0.18665
							156:leaf=0.177425
						78:[f22<0.056057] yes=157,no=158,missing=158
							157:leaf=0.184554
							158:leaf=0.194216
		4:[f36<0.155366] yes=9,no=10,missing=10
			9:[f33<7] yes=19,no=20,missing=19
				19:[f68<1775] yes=39,no=40,missing=40
					39:[f68<5] yes=79,no=80,missing=80
						79:[f2<464.566] yes=159,no=160,missing=160
							159:leaf=0.0417583
							160:leaf=0.0957244
						80:[f2<197.903] yes=161,no=162,missing=162
							161:leaf=-0.0452577
							162:leaf=0.143789
					40:[f28<43] yes=81,no=82,missing=81
						81:[f36<0.122412] yes=163,no=164,missing=164
							163:leaf=0.037289
							164:leaf=0.0573105
						82:[f44<121] yes=165,no=166,missing=165
							165:leaf=0.0799867
							166:leaf=0.0530288
				20:[f7<0.999999] yes=41,no=42,missing=41
					41:[f16<350404] yes=83,no=84,missing=84
						83:[f4<5] yes=167,no=168,missing=168
							167:leaf=-0.233244
							168:leaf=0.137646
						84:[f22<0.022237] yes=169,no=170,missing=170
							169:leaf=-0.103172
							170:leaf=0.106396
					42:[f44<59] yes=85,no=86,missing=86
						85:[f47<0.202531] yes=171,no=172,missing=172
							171:leaf=0.0672005
							172:leaf=0.105883
						86:[f34<0.067567] yes=173,no=174,missing=173
							173:leaf=0.0628353
							174:leaf=0.104129
			10:[f36<0.234736] yes=21,no=22,missing=22
				21:[f68<2] yes=43,no=44,missing=43
					43:[f5<387] yes=87,no=88,missing=88
						87:[f3<42] yes=175,no=176,missing=176
							175:leaf=0.0831503
							176:leaf=0.100672
						88:[f3<31] yes=177,no=178,missing=178
							177:leaf=0.0399598
							178:leaf=0.113669
					44:[f3<41] yes=89,no=90,missing=90
						89:[f27<2326] yes=179,no=180,missing=180
							179:leaf=0.121921
							180:leaf=-0.0261168
						90:[f24<2.7e-05] yes=181,no=182,missing=181
							181:leaf=0.18486
							182:leaf=0.139151
				22:[f22<0.052] yes=45,no=46,missing=46
					45:[f45<3] yes=91,no=92,missing=92
						91:[f2<273.078] yes=183,no=184,missing=184
							183:leaf=0.192947
							184:leaf=-0.129254
						92:[f28<32] yes=185,no=186,missing=186
							185:leaf=-0.115719
							186:leaf=0.105332
					46:[f18<0.025789] yes=93,no=94,missing=94
						93:[f12<0.999999] yes=187,no=188,missing=187
							187:leaf=0.00703011
							188:leaf=-0.262024
						94:[f9<6] yes=189,no=190,missing=190
							189:leaf=0.0982772
							190:leaf=0.137047
	2:[f0<21] yes=5,no=6,missing=6
		5:[f0<10] yes=11,no=12,missing=12
			11:[f36<0.165284] yes=23,no=24,missing=24
				23:[f68<1775] yes=47,no=48,missing=48
					47:[f9<5] yes=95,no=96,missing=95
						95:[f44<99] yes=191,no=192,missing=191
							191:leaf=-0.0108982
							192:leaf=-0.048207
						96:[f2<134.91] yes=193,no=194,missing=193
							193:leaf=-0.0505973
							194:leaf=-0.0788884
					48:[f16<4228] yes=97,no=98,missing=97
						97:[f2<197.903] yes=195,no=196,missing=195
							195:leaf=-0.0774897
							196:leaf=-0.105819
						98:[f36<0.123872] yes=197,no=198,missing=198
							197:leaf=-0.129614
							198:leaf=-0.111182
				24:[f68<1775] yes=49,no=50,missing=50
					49:[f2<2218.34] yes=99,no=100,missing=100
						99:[f3<43] yes=199,no=200,missing=200
							199:leaf=-0.0737557
							200:leaf=-0.0182829
						100:[f27<288] yes=201,no=202,missing=202
							201:leaf=-0.000390493
							202:leaf=-0.0398021
					50:[f36<0.218575] yes=101,no=102,missing=102
						101:[f16<69444] yes=203,no=204,missing=203
							203:leaf=-0.0751478
							204:leaf=-0.0946341
						102:[f18<0.077457] yes=205,no=206,missing=205
							205:leaf=-0.0632216
							206:leaf=-0.0267267
			12:[f36<0.150032] yes=25,no=26,missing=25
				25:[f68<150] yes=51,no=52,missing=52
					51:[f70<2] yes=103,no=104,missing=103
						103:[f16<20188] yes=207,no=208,missing=207
							207:leaf=-0.0779567
							208:leaf=-0.113121
						104:[f0<12] yes=209,no=210,missing=210
							209:leaf=-0.0323156
							210:leaf=-0.0775955
					52:[f0<14] yes=105,no=106,missing=106
						105:[f16<3248] yes=211,no=212,missing=211
							211:leaf=-0.13065
							212:leaf=-0.152401
						106:[f36<0.109825] yes=213,no=214,missing=214
							213:leaf=-0.180187
							214:leaf=-0.164857
				26:[f68<1775] yes=53,no=54,missing=54
					53:[f67<0.499999] yes=107,no=108,missing=107
						107:[f0<14] yes=215,no=216,missing=216
							215:leaf=-0.00636909
							216:leaf=-0.0589561
						108:[f2<2218.34] yes=217,no=218,missing=218
							217:leaf=-0.0962646
							218:leaf=-0.0670488
					54:[f36<0.206635] yes=109,no=110,missing=110
						109:[f0<15] yes=219,no=220,missing=220
							219:leaf=-0.125938
							220:leaf=-0.14879
						110:[f0<14] yes=221,no=222,missing=222
							221:leaf=-0.0935589
							222:leaf=-0.120512
		6:[f36<0.167426] yes=13,no=14,missing=14
			13:[f68<14] yes=27,no=28,missing=28
				27:[f70<2] yes=55,no=56,missing=55
					55:[f0<26] yes=111,no=112,missing=112
						111:[f65<0.999999] yes=223,no=224,missing=223
							223:leaf=-0.143943
							224:leaf=-0.0120681
						112:[f3<50] yes=225,no=226,missing=226
							225:leaf=-0.165985
							226:leaf=-0.0580284
					56:[f67<0.737863] yes=113,no=114,missing=114
						113:[f16<323730] yes=227,no=228,missing=228
							227:leaf=-0.173231
							228:leaf=-0.111368
						114:[f46<0.045762] yes=229,no=230,missing=230
							229:leaf=0.0781839
							230:leaf=-0.0991462
				28:[f0<25] yes=57,no=58,missing=58
					57:[f36<0.119349] yes=115,no=116,missing=116
						115:[f63<5] yes=231,no=232,missing=231
							231:leaf=-0.20496
							232:leaf=-0.190781
						116:[f0<22] yes=233,no=234,missing=234
							233:leaf=-0.180034
							234:leaf=-0.19335
					58:[f36<0.133025] yes=117,no=118,missing=118
						117:[f0<35] yes=235,no=236,missing=236
							235:leaf=-0.215022
							236:leaf=-0.204337
						118:[f0<28] yes=237,no=238,missing=238
							237:leaf=-0.200521
							238:leaf=-0.20869
			14:[f0<25] yes=29,no=30,missing=30
				29:[f68<80] yes=59,no=60,missing=60
					59:[f47<0.260874] yes=119,no=120,missing=119
						119:[f26<25258] yes=239,no=240,missing=240
							239:leaf=-0.117368
							240:leaf=0.143901
						120:[f65<0.107142] yes=241,no=242,missing=241
							241:leaf=0.245991
							242:leaf=-0.208159
					60:[f18<0.040429] yes=121,no=122,missing=122
						121:[f0<23] yes=243,no=244,missing=244
							243:leaf=-0.170987
							244:leaf=-0.186983
						122:[f36<0.189124] yes=245,no=246,missing=246
							245:leaf=-0.17229
							246:leaf=-0.152575
				30:[f18<0.051317] yes=61,no=62,missing=62
					61:[f68<27] yes=123,no=124,missing=124
						123:[f70<2] yes=247,no=248,missing=247
							247:leaf=-0.155242
							248:leaf=-0.0804295
						124:[f26<351] yes=249,no=250,missing=249
							249:leaf=-0.193152
							250:leaf=-0.202958
					62:[f68<10] yes=125,no=126,missing=126
						125:[f2<2109.85] yes=251,no=252,missing=252
							251:leaf=-0.173902
							252:leaf=-0.117905
						126:[f36<0.201536] yes=253,no=254,missing=254
							253:leaf=-0.18904
							254:leaf=-0.172359
booster[2]:
0:[f0<6] yes=1,no=2,missing=2
	1:[f0<5] yes=3,no=4,missing=4
		3:[f0<3] yes=7,no=8,missing=8
			7:[f0<2] yes=15,no=16,missing=16
				15:[f36<0.153536] yes=31,no=32,missing=32
					31:[f33<8] yes=63,no=64,missing=63
						63:[f68<2392] yes=127,no=128,missing=128
							127:leaf=0.186356
							128:leaf=0.17554
						64:[f6<10] yes=129,no=130,missing=129
							129:leaf=0.197976
							130:leaf=0.189198
					32:[f33<8] yes=65,no=66,missing=65
						65:[f36<0.207414] yes=131,no=132,missing=132
							131:leaf=0.185864
							132:leaf=0.192798
						66:[f11<10] yes=133,no=134,missing=133
							133:leaf=0.196972
							134:leaf=0.185376
				16:[f36<0.149922] yes=33,no=34,missing=33
					33:[f33<4] yes=67,no=68,missing=67
						67:[f68<2] yes=135,no=136,missing=135
							135:leaf=0.1495
							136:leaf=0.172286
						68:[f37<0.004015] yes=137,no=138,missing=137
							137:leaf=0.176536
							138:leaf=0.164902
					34:[f33<2] yes=69,no=70,missing=69
						69:[f40<0.176701] yes=139,no=140,missing=139
							139:leaf=0.159151
							140:leaf=0.170254
						70:[f37<0.000464] yes=141,no=142,missing=141
							141:leaf=0.183876
							142:leaf=0.17208
			8:[f36<0.149922] yes=17,no=18,missing=18
				17:[f33<5] yes=35,no=36,missing=35
					35:[f68<2392] yes=71,no=72,missing=72
						71:[f68<7] yes=143,no=144,missing=144
							143:leaf=0.143835
							144:leaf=0.170112
						72:[f36<0.124148] yes=145,no=146,missing=146
							145:leaf=0.117728
							146:leaf=0.131064
					36:[f37<0.002355] yes=73,no=74,missing=73
						73:[f0<4] yes=147,no=148,missing=148
							147:leaf=0.163544
							148:leaf=0.149912
						74:[f0<4] yes=149,no=150,missing=150
							149:leaf=0.146415
							150:leaf=0.130378
				18:[f36<0.189184] yes=37,no=38,missing=38
					37:[f33<3] yes=75,no=76,missing=75
						75:[f68<2] yes=151,no=152,missing=151
							151:leaf=0.141878
							152:leaf=0.162625
						76:[f23<0.001689] yes=153,no=154,missing=153
							153:leaf=0.164962
							154:leaf=0.146794
					38:[f0<4] yes=77,no=78,missing=78
						77:[f40<0.244433] yes=155,no=156,missing=155
							155:leaf=0.159615
							156:leaf=0.167964
						78:[f40<0.269909] yes=157,no=158,missing=158
							157:leaf=0.15023
							158:leaf=0.163091
		4:[f36<0.14655] yes=9,no=10,missing=10
			9:[f33<7] yes=19,no=20,missing=19
				19:[f40<0.133507] yes=39,no=40,missing=40
					39:[f69<100] yes=79,no=80,missing=80
						79:[f16<63420] yes=159,no=160,missing=160
							159:leaf=0.0468458
							160:leaf=0.0943622
						80:[f5<475] yes=161,no=162,missing=162
							161:leaf=0.0312889
							162:leaf=0.0564502
					40:[f28<42] yes=81,no=82,missing=82
						81:[f58<49] yes=163,no=164,missing=164
							163:leaf=0.0396494
							164:leaf=0.0627658
						82:[f27<490] yes=165,no=166,missing=165
							165:leaf=0.0849104
							166:leaf=0.0588632
				20:[f37<0.001035] yes=41,no=42,missing=41
					41:[f45<30] yes=83,no=84,missing=83
						83:[f67<0.530119] yes=167,no=168,missing=167
							167:leaf=0.144033
							168:leaf=0.099559
						84:[f8<0.119999] yes=169,no=170,missing=170
							169:leaf=0.163742
							170:leaf=-0.0175289
					42:[f68<2] yes=85,no=86,missing=85
						85:[f11<8] yes=171,no=172,missing=171
							171:leaf=0.0557624
							172:leaf=0.0821691
						86:[f14<16] yes=173,no=174,missing=173
							173:leaf=0.143573
							174:leaf=-0.119255
			10:[f40<0.227758] yes=21,no=22,missing=22
				21:[f5<0.999999] yes=43,no=44,missing=43
					43:[f68<2392] yes=87,no=88,missing=88
						87:[f41<0.000819] yes=175,no=176,missing=176
							175:leaf=-0.0896765
							176:leaf=0.13736
						88:[f58<5] yes=177,no=178,missing=178
							177:leaf=0.0555005
							178:leaf=0.0968949
					44:[f68<3] yes=89,no=90,missing=89
						89:[f28<43] yes=179,no=180,missing=180
							179:leaf=0.0619312
							180:leaf=0.078033
						90:[f69<11] yes=181,no=182,missing=181
							181:leaf=0.105167
							182:leaf=0.162797
				22:[f68<5] yes=45,no=46,missing=45
					45:[f4<36] yes=91,no=92,missing=91
						91:[f41<0.0031] yes=183,no=184,missing=183
							183:leaf=0.111791
							184:leaf=0.171179
						92:[f8<22] yes=185,no=186,missing=186
							185:leaf=0.0864048
							186:leaf=0.106604
					46:[f36<0.157446] yes=93,no=94,missing=94
						93:[f22<0.028163] yes=187,no=188,missing=188
							187:leaf=0.0342527
							188:leaf=-0.234246
						94:[f16<1.73968e+06] yes=189,no=190,missing=189
							189:leaf=0.153584
							190:leaf=-0.21004
	2:[f0<21] yes=5,no=6,missing=6
		5:[f0<11] yes=11,no=12,missing=12
			11:[f36<0.159332] yes=23,no=24,missing=24
				23:[f68<80] yes=47,no=48,missing=48
					47:[f15<216] yes=95,no=96,missing=95
						95:[f4<80] yes=191,no=192,missing=192
							191:leaf=-0.0293759
							192:leaf=0.00603944
						96:[f69<2] yes=193,no=194,missing=193
							193:leaf=-0.0695541
							194:leaf=-0.0423386
					48:[f0<9] yes=97,no=98,missing=98
						97:[f37<0.004227] yes=195,no=196,missing=195
							195:leaf=-0.0796482
							196:leaf=-0.0994293
						98:[f36<0.109895] yes=197,no=198,missing=198
							197:leaf=-0.126826
							198:leaf=-0.107297
				24:[f40<0.215007] yes=49,no=50,missing=49
					49:[f69<738] yes=99,no=100,missing=100
						99:[f7<4] yes=199,no=200,missing=199
							199:leaf=0.00526049
							200:leaf=-0.0401936
						100:[f0<9] yes=201,no=202,missing=202
							201:leaf=-0.0666709
							202:leaf=-0.0869484
					50:[f16<13408] yes=101,no=102,missing=101
						101:[f0<8] yes=203,no=204,missing=204
							203:leaf=-0.0128865
							204:leaf=-0.042079
						102:[f0<7] yes=205,no=206,missing=206
							205:leaf=-0.0364617
							206:leaf=-0.0626401
			12:[f36<0.157446] yes=25,no=26,missing=25
				25:[f68<2392] yes=51,no=52,missing=52
					51:[f69<28] yes=103,no=104,missing=104
						103:[f16<7952] yes=207,no=208,missing=207
							207:leaf=-0.0447377
							208:leaf=-0.0779031
						104:[f66<1.80952] yes=209,no=210,missing=209
							209:leaf=-0.0980421
							210:leaf=-0.0245354
					52:[f0<15] yes=105,no=106,missing=106
						105:[f36<0.11932] yes=211,no=212,missing=211
							211:leaf=-0.136423
							212:leaf=-0.119141
						106:[f36<0.127154] yes=213,no=214,missing=213
							213:leaf=-0.149991
							214:leaf=-0.135534
				26:[f68<2392] yes=53,no=54,missing=54
					53:[f0<15] yes=107,no=108,missing=108
						107:[f37<0.027792] yes=215,no=216,missing=215
							215:leaf=-0.0476624
							216:leaf=0.147219
						108:[f49<9] yes=217,no=218,missing=217
							217:leaf=0.0341768
							218:leaf=-0.0709391
					54:[f40<0.215007] yes=109,no=110,missing=110
						109:[f0<17] yes=219,no=220,missing=220
							219:leaf=-0.107752
							220:leaf=-0.126538
						110:[f36<0.247353] yes=221,no=222,missing=222
							221:leaf=-0.0960192
							222:leaf=-0.0743255
		6:[f36<0.161253] yes=13,no=14,missing=14
			13:[f68<12] yes=27,no=28,missing=28
				27:[f0<26] yes=55,no=56,missing=56
					55:[f66<0.949999] yes=111,no=112,missing=112
						111:[f69<4] yes=223,no=224,missing=223
							223:leaf=-0.135846
							224:leaf=-0.050234
						112:[f65<0.095237] yes=225,no=226,missing=226
							225:leaf=-0.135798
							226:leaf=-0.0919724
					56:[f22<0.093959] yes=113,no=114,missing=113
						113:[f49<659] yes=227,no=228,missing=227
							227:leaf=-0.132588
							228:leaf=-0.156904
						114:[f48<1648] yes=229,no=230,missing=230
							229:leaf=-0.140191
							230:leaf=0.303447
				28:[f0<26] yes=57,no=58,missing=58
					57:[f36<0.11932] yes=115,no=116,missing=116
						115:[f40<0.113636] yes=231,no=232,missing=232
							231:leaf=-0.180021
							232:leaf=-0.170006
						116:[f0<23] yes=233,no=234,missing=234
							233:leaf=-0.158679
							234:leaf=-0.169111
					58:[f40<0.15328] yes=117,no=118,missing=117
						117:[f22<0.034692] yes=235,no=236,missing=236
							235:leaf=-0.18779
							236:leaf=-0.178868
						118:[f0<35] yes=237,no=238,missing=238
							237:leaf=-0.178027
							238:leaf=-0.162626
			14:[f0<25] yes=29,no=30,missing=30
				29:[f40<0.221338] yes=59,no=60,missing=60
					59:[f0<23] yes=119,no=120,missing=120
						119:[f68<27] yes=239,no=240,missing=240
							239:leaf=-0.100459
							240:leaf=-0.13866
						120:[f11<4] yes=241,no=242,missing=241
							241:leaf=-0.161543
							242:leaf=-0.145731
					60:[f68<80] yes=121,no=122,missing=122
						121:[f11<5] yes=243,no=244,missing=243
							243:leaf=-0.0453407
							244:leaf=-0.113829
						122:[f66<1.28571] yes=245,no=246,missing=245
							245:leaf=-0.130513
							246:leaf=-0.10129
				30:[f68<22] yes=61,no=62,missing=62
					61:[f69<3] yes=123,no=124,missing=123
						123:[f53<2] yes=247,no=248,missing=247
							247:leaf=0.0161115
							248:leaf=-0.125614
						124:[f65<0.499999] yes=249,no=250,missing=249
							249:leaf=-0.0835605
							250:leaf=0.0806448
					62:[f22<0.051953] yes=125,no=126,missing=126
						125:[f40<0.182709] yes=251,no=252,missing=252
							251:leaf=-0.175711
							252:leaf=-0.165517
						126:[f40<0.235594] yes=253,no=254,missing=254
							253:leaf=-0.160855
							254:leaf=-0.142096
booster[3]:
0:[f1<1075.37] yes=1,no=2,missing=2
	1:[f52<137] yes=3,no=4,missing=3
		3:[f22<0.032649] yes=7,no=8,missing=7
			7:[f1<301.376] yes=15,no=16,missing=16
				15:[f51<34] yes=31,no=32,missing=31
					31:[f68<1412] yes=63,no=64,missing=64
						63:[f68<2] yes=127,no=128,missing=128
							127:leaf=0.0232416
							128:leaf=0.0777705
						64:[f22<0.014266] yes=129,no=130,missing=130
							129:leaf=-0.0822526
							130:leaf=-0.0277375
					32:[f68<1412] yes=65,no=66,missing=66
						65:[f68<3] yes=131,no=132,missing=132
							131:leaf=0.0711341
							132:leaf=0.106573
						66:[f22<0.023964] yes=133,no=134,missing=134
							133:leaf=-0.0101201
							134:leaf=0.0263485
				16:[f22<0.018915] yes=33,no=34,missing=34
					33:[f68<41] yes=67,no=68,missing=68
						67:[f49<89] yes=135,no=136,missing=135
							135:leaf=-0.00791174
							136:leaf=0.0679001
						68:[f22<0.014266] yes=137,no=138,missing=138
							137:leaf=-0.118274
							138:leaf=-0.0900891
					34:[f68<142] yes=69,no=70,missing=70
						69:[f68<3] yes=139,no=140,missing=140
							139:leaf=0.0275907
							140:leaf=0.0691199
						70:[f1<543.971] yes=141,no=142,missing=142
							141:leaf=-0.0295923
							142:leaf=-0.0556928
			8:[f22<0.05061] yes=17,no=18,missing=18
				17:[f1<279.886] yes=35,no=36,missing=36
					35:[f52<51] yes=71,no=72,missing=71
						71:[f44<80] yes=143,no=144,missing=143
							143:leaf=-0.00117978
							144:leaf=0.0401854
						72:[f44<80] yes=145,no=146,missing=146
							145:leaf=0.0413856
							146:leaf=0.0717451
					36:[f44<80] yes=73,no=74,missing=74
						73:[f68<52] yes=147,no=148,missing=148
							147:leaf=0.0492012
							148:leaf=-0.02674
						74:[f68<142] yes=149,no=150,missing=150
							149:leaf=0.0707534
							150:leaf=0.0106486
				18:[f44<80] yes=37,no=38,missing=38
					37:[f55<0.357142] yes=75,no=76,missing=75
						75:[f22<0.074556] yes=151,no=152,missing=152
							151:leaf=0.0336182
							152:leaf=0.0966569
						76:[f1<382.015] yes=153,no=154,missing=154
							153:leaf=0.0205531
							154:leaf=-0.0388128
					38:[f55<0.312499] yes=77,no=78,missing=77
						77:[f1<440.266] yes=155,no=156,missing=156
							155:leaf=0.101972
							156:leaf=0.0722815
						78:[f22<0.074556] yes=157,no=158,missing=158
							157:leaf=0.0405441
							158:leaf=0.0843692
		4:[f1<359.886] yes=9,no=10,missing=10
			9:[f22<0.036736] yes=19,no=20,missing=20
				19:[f68<1412] yes=39,no=40,missing=40
					39:[f72<2] yes=79,no=80,missing=80
						79:[f56<0.770832] yes=159,no=160,missing=160
							159:leaf=0.12097
							160:leaf=0.167778
						80:[f68<2] yes=161,no=162,missing=162
							161:leaf=0.106535
							162:leaf=0.129242
					40:[f1<134.6] yes=81,no=82,missing=82
						81:[f52<307] yes=163,no=164,missing=164
							163:leaf=0.0747983
							164:leaf=0.104933
						82:[f48<640] yes=165,no=166,missing=166
							165:leaf=0.0391567
							166:leaf=0.0774508
				20:[f68<1412] yes=41,no=42,missing=42
					41:[f72<2] yes=83,no=84,missing=84
						83:[f57<0.740205] yes=167,no=168,missing=168
							167:leaf=0.172171
							168:leaf=0.15471
						84:[f68<4] yes=169,no=170,missing=170
							169:leaf=0.120984
							170:leaf=0.145371
					42:[f37<0.005697] yes=85,no=86,missing=86
						85:[f58<64] yes=171,no=172,missing=171
							171:leaf=0.078497
							172:leaf=0.106587
						86:[f1<224.976] yes=173,no=174,missing=174
							173:leaf=0.121399
							174:leaf=0.101327
			10:[f22<0.03885] yes=21,no=22,missing=22
				21:[f68<1412] yes=43,no=44,missing=44
					43:[f68<2] yes=87,no=88,missing=88
						87:[f37<0.006417] yes=175,no=176,missing=176
							175:leaf=0.0380021
							176:leaf=0.0699015
						88:[f72<2] yes=177,no=178,missing=178
							177:leaf=0.141595
							178:leaf=0.0921485
					44:[f48<640] yes=89,no=90,missing=90
						89:[f22<0.028744] yes=179,no=180,missing=180
							179:leaf=-0.0273544
							180:leaf=0.00556557
						90:[f1<631.932] yes=181,no=182,missing=182
							181:leaf=0.0520416
							182:leaf=0.0164579
				22:[f68<1412] yes=45,no=46,missing=46
					45:[f72<2] yes=91,no=92,missing=92
						91:[f68<10] yes=183,no=184,missing=184
							183:leaf=0.146825
							184:leaf=0.17059
						92:[f68<2] yes=185,no=186,missing=186
							185:leaf=0.0862263
							186:leaf=0.111763
					46:[f22<0.0596] yes=93,no=94,missing=94
						93:[f60<41] yes=187,no=188,missing=187
							187:leaf=0.039984
							188:leaf=0.0661947
						94:[f37<0.007782] yes=189,no=190,missing=190
							189:leaf=0.075137
							190:leaf=0.104576
	2:[f1<1917.65] yes=5,no=6,missing=6
		5:[f22<0.03885] yes=11,no=12,missing=11
			11:[f68<1412] yes=23,no=24,missing=24
				23:[f68<4] yes=47,no=48,missing=48
					47:[f72<2] yes=95,no=96,missing=96
						95:[f10<3] yes=191,no=192,missing=192
							191:leaf=0.0237586
							192:leaf=0.109408
						96:[f70<2] yes=193,no=194,missing=193
							193:leaf=-0.00936613
							194:leaf=0.0283258
					48:[f1<1536.75] yes=97,no=98,missing=98
						97:[f64<2] yes=195,no=196,missing=195
							195:leaf=0.0547004
							196:leaf=0.0913911
						98:[f71<2] yes=197,no=198,missing=198
							197:leaf=0.0838501
							198:leaf=0.0136804
				24:[f22<0.026564] yes=49,no=50,missing=50
					49:[f22<0.018915] yes=99,no=100,missing=100
						99:[f44<30] yes=199,no=200,missing=200
							199:leaf=-0.0913303
							200:leaf=-0.124304
						100:[f6<73] yes=201,no=202,missing=202
							201:leaf=-0.0944384
							202:leaf=-0.0660387
					50:[f6<103] yes=101,no=102,missing=102
						101:[f1<1536.75] yes=203,no=204,missing=204
							203:leaf=-0.0569174
							204:leaf=-0.0806756
						102:[f1<1386.65] yes=205,no=206,missing=206
							205:leaf=-0.0230331
							206:leaf=-0.0531214
			12:[f22<0.057718] yes=25,no=26,missing=26
				25:[f68<1412] yes=51,no=52,missing=52
					51:[f72<2] yes=103,no=104,missing=104
						103:[f55<0.357142] yes=207,no=208,missing=207
							207:leaf=0.120563
							208:leaf=-0.0801618
						104:[f1<1435.07] yes=209,no=210,missing=210
							209:leaf=0.0607177
							210:leaf=0.0306825
					52:[f1<1536.75] yes=105,no=106,missing=106
						105:[f55<0.210525] yes=211,no=212,missing=212
							211:leaf=0.00582214
							212:leaf=-0.0309674
						106:[f22<0.046779] yes=213,no=214,missing=214
							213:leaf=-0.0439726
							214:leaf=-0.0221593
				26:[f55<0.158939] yes=53,no=54,missing=53
					53:[f22<0.074556] yes=107,no=108,missing=108
						107:[f1<1306.76] yes=215,no=216,missing=216
							215:leaf=0.0681287
							216:leaf=0.0377272
						108:[f1<1435.07] yes=217,no=218,missing=218
							217:leaf=0.0931289
							218:leaf=0.0675423
					54:[f44<98] yes=109,no=110,missing=110
						109:[f68<142] yes=219,no=220,missing=220
							219:leaf=0.0621051
							220:leaf=-0.000438037
						110:[f55<0.392856] yes=221,no=222,missing=222
							221:leaf=0.0491285
							222:leaf=-0.00581154
		6:[f22<0.041953] yes=13,no=14,missing=14
			13:[f68<1412] yes=27,no=28,missing=28
				27:[f68<3] yes=55,no=56,missing=56
					55:[f72<2] yes=111,no=112,missing=112
						111:[f14<3] yes=223,no=224,missing=224
							223:leaf=0.19859
							224:leaf=0.0223351
						112:[f22<0.033163] yes=225,no=226,missing=226
							225:leaf=-0.0487407
							226:leaf=-0.0256466
					56:[f68<8] yes=113,no=114,missing=114
						113:[f44<98] yes=227,no=228,missing=228
							227:leaf=0.0231676
							228:leaf=-0.0176269
						114:[f66<0.666666] yes=229,no=230,missing=230
							229:leaf=-0.106744
							230:leaf=0.0711706
				28:[f57<0.651143] yes=57,no=58,missing=58
					57:[f22<0.024716] yes=115,no=116,missing=116
						115:[f58<5] yes=231,no=232,missing=231
							231:leaf=-0.12826
							232:leaf=-0.076381
						116:[f57<0.563635] yes=233,no=234,missing=234
							233:leaf=-0.0534798
							234:leaf=-0.0882711
					58:[f1<3000] yes=117,no=118,missing=118
						117:[f22<0.032174] yes=235,no=236,missing=236
							235:leaf=-0.11096
							236:leaf=-0.0863384
						118:[f66<1.825] yes=237,no=238,missing=238
							237:leaf=-0.123945
							238:leaf=-0.101332
			14:[f68<1412] yes=29,no=30,missing=30
				29:[f72<2] yes=59,no=60,missing=60
					59:[f1<3000] yes=119,no=120,missing=120
						119:[f9<3] yes=239,no=240,missing=240
							239:leaf=-0.0719927
							240:leaf=0.112097
						120:[f12<1.02] yes=241,no=242,missing=241
							241:leaf=0.06677
							242:leaf=-0.0510188
					60:[f68<2] yes=121,no=122,missing=122
						121:[f49<192] yes=243,no=244,missing=243
							243:leaf=0.0286461
							244:leaf=-0.0170361
						122:[f53<163] yes=245,no=246,missing=245
							245:leaf=0.0325916
							246:leaf=-0.00695463
				30:[f1<3000] yes=61,no=62,missing=62
					61:[f22<0.056056] yes=123,no=124,missing=123
						123:[f53<34] yes=247,no=248,missing=247
							247:leaf=-0.040345
							248:leaf=-0.0728484
						124:[f22<0.070293] yes=249,no=250,missing=250
							249:leaf=-0.0332074
							250:leaf=0.00300534
					62:[f48<338] yes=125,no=126,missing=125
						125:[f57<0.545454] yes=251,no=252,missing=252
							251:leaf=-0.00397718
							252:leaf=-0.0672035
						126:[f22<0.061591] yes=253,no=254,missing=254
							253:leaf=-0.107568
							254:leaf=-0.0791815
booster[4]:
0:[f1<1078.08] yes=1,no=2,missing=2
	1:[f61<16] yes=3,no=4,missing=3
		3:[f22<0.033289] yes=7,no=8,missing=7
			7:[f1<280.889] yes=15,no=16,missing=16
				15:[f4<33] yes=31,no=32,missing=31
					31:[f18<0.013943] yes=63,no=64,missing=64
						63:[f68<134] yes=127,no=128,missing=128
							127:leaf=0.00830068
							128:leaf=-0.064747
						64:[f68<2392] yes=129,no=130,missing=130
							129:leaf=0.0601951
							130:leaf=-0.0125299
					32:[f68<2392] yes=65,no=66,missing=66
						65:[f68<2] yes=131,no=132,missing=132
							131:leaf=0.0672466
							132:leaf=0.106288
						66:[f18<0.019379] yes=133,no=134,missing=134
							133:leaf=-0.0035816
							134:leaf=0.0363924
				16:[f22<0.020285] yes=33,no=34,missing=34
					33:[f68<134] yes=67,no=68,missing=68
						67:[f68<3] yes=135,no=136,missing=136
							135:leaf=-0.0184386
							136:leaf=0.0587264
						68:[f15<49] yes=137,no=138,missing=138
							137:leaf=-0.0980665
							138:leaf=-0.0742515
					34:[f68<2392] yes=69,no=70,missing=70
						69:[f69<2] yes=139,no=140,missing=139
							139:leaf=0.0270087
							140:leaf=0.0614495
						70:[f4<40] yes=141,no=142,missing=141
							141:leaf=-0.0474902
							142:leaf=-0.0238972
			8:[f18<0.04993] yes=17,no=18,missing=17
				17:[f1<337.218] yes=35,no=36,missing=36
					35:[f4<40] yes=71,no=72,missing=71
						71:[f40<0.185944] yes=143,no=144,missing=143
							143:leaf=0.0360994
							144:leaf=-0.00466478
						72:[f40<0.192987] yes=145,no=146,missing=146
							145:leaf=0.0654817
							146:leaf=0.0343743
					36:[f40<0.185944] yes=73,no=74,missing=73
						73:[f18<0.035894] yes=147,no=148,missing=148
							147:leaf=-0.00390449
							148:leaf=0.04372
						74:[f68<53] yes=149,no=150,missing=150
							149:leaf=0.0340289
							150:leaf=-0.0266184
				18:[f40<0.245256] yes=37,no=38,missing=38
					37:[f1<303.066] yes=75,no=76,missing=76
						75:[f37<0.001686] yes=151,no=152,missing=152
							151:leaf=0.0736602
							152:leaf=0.110984
						76:[f40<0.200993] yes=153,no=154,missing=154
							153:leaf=0.0872473
							154:leaf=0.0516802
					38:[f18<0.077198] yes=77,no=78,missing=78
						77:[f1<226.104] yes=155,no=156,missing=156
							155:leaf=0.043077
							156:leaf=-0.00378539
						78:[f40<0.323893] yes=157,no=158,missing=158
							157:leaf=0.100436
							158:leaf=0.0438976
		4:[f1<487.599] yes=9,no=10,missing=10
			9:[f1<165.714] yes=19,no=20,missing=20
				19:[f52<369] yes=39,no=40,missing=40
					39:[f68<2] yes=79,no=80,missing=79
						79:[f3<46] yes=159,no=160,missing=160
							159:leaf=0.0867837
							160:leaf=0.0542667
						80:[f72<2] yes=161,no=162,missing=162
							161:leaf=0.163514
							162:leaf=0.124728
					40:[f68<2] yes=81,no=82,missing=81
						81:[f52<769] yes=163,no=164,missing=164
							163:leaf=0.10334
							164:leaf=0.121623
						82:[f72<2] yes=165,no=166,missing=166
							165:leaf=0.165103
							166:leaf=0.136078
				20:[f22<0.038827] yes=41,no=42,missing=42
					41:[f52<388] yes=83,no=84,missing=84
						83:[f68<2392] yes=167,no=168,missing=168
							167:leaf=0.0902285
							168:leaf=0.0304868
						84:[f68<2392] yes=169,no=170,missing=170
							169:leaf=0.110086
							170:leaf=0.063438
					42:[f61<62] yes=85,no=86,missing=86
						85:[f37<0.005024] yes=171,no=172,missing=172
							171:leaf=0.0595267
							172:leaf=0.0879471
						86:[f68<4] yes=173,no=174,missing=173
							173:leaf=0.097184
							174:leaf=0.142854
			10:[f22<0.038203] yes=21,no=22,missing=22
				21:[f68<77] yes=43,no=44,missing=44
					43:[f68<4] yes=87,no=88,missing=88
						87:[f58<61] yes=175,no=176,missing=175
							175:leaf=0.0478269
							176:leaf=0.0759072
						88:[f33<11] yes=177,no=178,missing=177
							177:leaf=0.0991506
							178:leaf=0.136351
					44:[f4<268] yes=89,no=90,missing=90
						89:[f33<9] yes=179,no=180,missing=179
							179:leaf=-0.0136175
							180:leaf=0.0195712
						90:[f33<30] yes=181,no=182,missing=181
							181:leaf=0.0201962
							182:leaf=0.0747377
				22:[f68<2392] yes=45,no=46,missing=46
					45:[f72<2] yes=91,no=92,missing=92
						91:[f68<14] yes=183,no=184,missing=184
							183:leaf=0.13523
							184:leaf=0.170555
						92:[f37<0.00778] yes=185,no=186,missing=186
							185:leaf=0.0793179
							186:leaf=0.102995
					46:[f18<0.051218] yes=93,no=94,missing=94
						93:[f40<0.171451] yes=187,no=188,missing=188
							187:leaf=0.046725
							188:leaf=0.0200797
						94:[f40<0.221436] yes=189,no=190,missing=189
							189:leaf=0.0751455
							190:leaf=0.050228
	2:[f1<1928.95] yes=5,no=6,missing=6
		5:[f22<0.038203] yes=11,no=12,missing=11
			11:[f68<2392] yes=23,no=24,missing=24
				23:[f68<3] yes=47,no=48,missing=48
					47:[f1<1592.62] yes=95,no=96,missing=96
						95:[f33<87] yes=191,no=192,missing=191
							191:leaf=0.00428438
							192:leaf=0.133889
						96:[f3<33] yes=193,no=194,missing=194
							193:leaf=-0.14731
							194:leaf=-0.0258753
					48:[f72<2] yes=97,no=98,missing=98
						97:[f18<0.04541] yes=195,no=196,missing=196
							195:leaf=0.0977416
							196:leaf=-0.0181579
						98:[f69<7] yes=197,no=198,missing=197
							197:leaf=0.0310822
							198:leaf=0.0849597
				24:[f22<0.029682] yes=49,no=50,missing=50
					49:[f22<0.021382] yes=99,no=100,missing=100
						99:[f58<37] yes=199,no=200,missing=199
							199:leaf=-0.104839
							200:leaf=-0.0575202
						100:[f3<39] yes=201,no=202,missing=202
							201:leaf=-0.0839448
							202:leaf=-0.0590634
					50:[f3<38] yes=101,no=102,missing=102
						101:[f1<1633.97] yes=203,no=204,missing=204
							203:leaf=-0.0618544
							204:leaf=-0.0910328
						102:[f40<0.119687] yes=205,no=206,missing=206
							205:leaf=-0.0142713
							206:leaf=-0.0429265
			12:[f18<0.054233] yes=25,no=26,missing=25
				25:[f68<2392] yes=51,no=52,missing=52
					51:[f68<4] yes=103,no=104,missing=104
						103:[f72<2] yes=207,no=208,missing=208
							207:leaf=0.111396
							208:leaf=0.0266141
						104:[f3<38] yes=209,no=210,missing=210
							209:leaf=0.0278714
							210:leaf=0.0959397
					52:[f3<36] yes=105,no=106,missing=105
						105:[f1<1350.78] yes=211,no=212,missing=212
							211:leaf=-0.0388582
							212:leaf=-0.0672714
						106:[f1<1396.82] yes=213,no=214,missing=214
							213:leaf=0.0046264
							214:leaf=-0.0246675
				26:[f18<0.077198] yes=53,no=54,missing=54
					53:[f68<2392] yes=107,no=108,missing=108
						107:[f72<2] yes=215,no=216,missing=216
							215:leaf=0.126131
							216:leaf=0.0651901
						108:[f40<0.270437] yes=217,no=218,missing=218
							217:leaf=0.0271835
							218:leaf=-0.0172783
					54:[f40<0.290037] yes=109,no=110,missing=110
						109:[f15<13828] yes=219,no=220,missing=219
							219:leaf=0.0769351
							220:leaf=0.0208981
						110:[f58<59] yes=221,no=222,missing=221
							221:leaf=0.00690826
							222:leaf=0.0775928
		6:[f22<0.044948] yes=13,no=14,missing=14
			13:[f68<2392] yes=27,no=28,missing=28
				27:[f68<2] yes=55,no=56,missing=56
					55:[f3<40] yes=111,no=112,missing=112
						111:[f23<0.007532] yes=223,no=224,missing=224
							223:leaf=-0.0760395
							224:leaf=-0.0167421
						112:[f56<0.827308] yes=225,no=226,missing=226
							225:leaf=-0.00247183
							226:leaf=-0.0394148
					56:[f72<2] yes=113,no=114,missing=114
						113:[f3<40] yes=227,no=228,missing=227
							227:leaf=0.00380441
							228:leaf=0.0739829
						114:[f22<0.033289] yes=229,no=230,missing=230
							229:leaf=-0.0230451
							230:leaf=0.00939765
				28:[f67<0.674999] yes=57,no=58,missing=57
					57:[f22<0.0247] yes=115,no=116,missing=116
						115:[f61<5] yes=231,no=232,missing=231
							231:leaf=-0.117368
							232:leaf=-0.082288
						116:[f40<0.121523] yes=233,no=234,missing=233
							233:leaf=-0.0524804
							234:leaf=-0.0821981
					58:[f1<3000] yes=117,no=118,missing=118
						117:[f22<0.037135] yes=235,no=236,missing=236
							235:leaf=-0.0997103
							236:leaf=-0.0730161
						118:[f4<127] yes=237,no=238,missing=237
							237:leaf=-0.102539
							238:leaf=-0.126733
			14:[f1<3000] yes=29,no=30,missing=30
				29:[f18<0.062206] yes=59,no=60,missing=60
					59:[f68<2392] yes=119,no=120,missing=120
						119:[f72<2] yes=239,no=240,missing=240
							239:leaf=0.0851962
							240:leaf=0.00474014
						120:[f54<47] yes=241,no=242,missing=241
							241:leaf=-0.0348826
							242:leaf=-0.0637873
					60:[f22<0.093777] yes=121,no=122,missing=121
						121:[f68<2] yes=243,no=244,missing=243
							243:leaf=-0.0134089
							244:leaf=0.0566926
						122:[f7<137.52] yes=245,no=246,missing=245
							245:leaf=0.0545397
							246:leaf=-0.0331487
				30:[f15<297] yes=61,no=62,missing=61
					61:[f57<0.589743] yes=123,no=124,missing=124
						123:[f3<40] yes=247,no=248,missing=247
							247:leaf=-0.0485215
							248:leaf=0.00801149
						124:[f22<0.074832] yes=249,no=250,missing=249
							249:leaf=-0.065702
							250:leaf=-0.0233284
					62:[f68<77] yes=125,no=126,missing=126
						125:[f67<0.639999] yes=251,no=252,missing=251
							251:leaf=0.0249632
							252:leaf=-0.0255243
						126:[f67<0.68421] yes=253,no=254,missing=253
							253:leaf=-0.0724131
							254:leaf=-0.0968613
booster[5]:
0:[f0<6] yes=1,no=2,missing=2
	1:[f0<5] yes=3,no=4,missing=4
		3:[f0<2] yes=7,no=8,missing=8
			7:[f37<0.002472] yes=15,no=16,missing=15
				15:[f7<0.999999] yes=31,no=32,missing=32
					31:[f22<0.038842] yes=63,no=64,missing=63
						63:[f40<0.069036] yes=127,no=128,missing=128
							127:leaf=0.156018
							128:leaf=0.181977
						64:[f37<0.002078] yes=129,no=130,missing=129
							129:leaf=0.170901
							130:leaf=-0.0910108
					32:[f55<0.082473] yes=65,no=66,missing=66
						65:[f27<1551] yes=131,no=132,missing=132
							131:leaf=0.15723
							132:leaf=0.145332
						66:[f1<443.693] yes=133,no=134,missing=134
							133:leaf=0.159034
							134:leaf=0.164587
				16:[f55<0.114285] yes=33,no=34,missing=34
					33:[f36<0.150367] yes=67,no=68,missing=68
						67:[f1<1166.51] yes=135,no=136,missing=136
							135:leaf=0.14173
							136:leaf=0.153627
						68:[f53<22] yes=137,no=138,missing=138
							137:leaf=0.143698
							138:leaf=0.155724
					34:[f40<0.166473] yes=69,no=70,missing=69
						69:[f1<1202.63] yes=139,no=140,missing=140
							139:leaf=0.15154
							140:leaf=0.159149
						70:[f40<0.221622] yes=141,no=142,missing=142
							141:leaf=0.157839
							142:leaf=0.165167
			8:[f0<3] yes=17,no=18,missing=18
				17:[f37<0.001691] yes=35,no=36,missing=35
					35:[f7<0.999999] yes=71,no=72,missing=72
						71:[f39<0.000385] yes=143,no=144,missing=143
							143:leaf=0.161441
							144:leaf=-0.23923
						72:[f36<0.09441] yes=145,no=146,missing=146
							145:leaf=0.121314
							146:leaf=0.141273
					36:[f40<0.173978] yes=73,no=74,missing=73
						73:[f1<1075.96] yes=147,no=148,missing=148
							147:leaf=0.123143
							148:leaf=0.132598
						74:[f40<0.245679] yes=149,no=150,missing=150
							149:leaf=0.137804
							150:leaf=0.148749
				18:[f36<0.163606] yes=37,no=38,missing=38
					37:[f37<0.000752] yes=75,no=76,missing=75
						75:[f7<0.499999] yes=151,no=152,missing=152
							151:leaf=0.146053
							152:leaf=0.119074
						76:[f60<3] yes=153,no=154,missing=153
							153:leaf=0.119979
							154:leaf=0.10427
					38:[f40<0.21605] yes=77,no=78,missing=77
						77:[f7<0.999999] yes=155,no=156,missing=156
							155:leaf=0.144573
							156:leaf=0.121735
						78:[f40<0.270686] yes=157,no=158,missing=158
							157:leaf=0.131871
							158:leaf=0.139982
		4:[f40<0.205399] yes=9,no=10,missing=10
			9:[f57<0.599999] yes=19,no=20,missing=20
				19:[f44<112] yes=39,no=40,missing=39
					39:[f3<35] yes=79,no=80,missing=80
						79:[f60<60] yes=159,no=160,missing=160
							159:leaf=0.0158318
							160:leaf=0.0941944
						80:[f1<1131.67] yes=161,no=162,missing=162
							161:leaf=0.0804622
							162:leaf=0.10014
					40:[f39<0.002163] yes=81,no=82,missing=81
						81:[f40<0.107013] yes=163,no=164,missing=164
							163:leaf=0.0203071
							164:leaf=0.0636613
						82:[f61<9] yes=165,no=166,missing=166
							165:leaf=-0.226119
							166:leaf=0.0492885
				20:[f7<0.499999] yes=41,no=42,missing=42
					41:[f55<0.082473] yes=83,no=84,missing=83
						83:[f18<0.035263] yes=167,no=168,missing=168
							167:leaf=0.00580023
							168:leaf=0.107264
						84:[f48<641] yes=169,no=170,missing=170
							169:leaf=0.098088
							170:leaf=0.0689961
					42:[f3<40] yes=85,no=86,missing=85
						85:[f44<216] yes=171,no=172,missing=172
							171:leaf=0.0386537
							172:leaf=0.0199911
						86:[f44<66] yes=173,no=174,missing=174
							173:leaf=0.0589487
							174:leaf=0.0432921
			10:[f36<0.235315] yes=21,no=22,missing=22
				21:[f68<10] yes=43,no=44,missing=43
					43:[f3<40] yes=87,no=88,missing=88
						87:[f53<209] yes=175,no=176,missing=175
							175:leaf=0.0554245
							176:leaf=0.0833495
						88:[f37<0.004838] yes=177,no=178,missing=177
							177:leaf=0.0826754
							178:leaf=0.056723
					44:[f49<30] yes=89,no=90,missing=90
						89:leaf=-0.15019
						90:[f12<11] yes=179,no=180,missing=179
							179:leaf=0.163437
							180:leaf=-0.235753
				22:[f3<37] yes=45,no=46,missing=46
					45:[f60<85] yes=91,no=92,missing=91
						91:[f65<0.124999] yes=181,no=182,missing=182
							181:leaf=0.116985
							182:leaf=0.0521873
						92:[f10<28] yes=183,no=184,missing=183
							183:leaf=-0.229124
							184:leaf=-0.0217854
					46:[f27<287] yes=93,no=94,missing=93
						93:[f55<0.392637] yes=185,no=186,missing=185
							185:leaf=0.10831
							186:leaf=0.0729449
						94:[f16<194888] yes=187,no=188,missing=188
							187:leaf=0.0621532
							188:leaf=0.0964402
	2:[f0<21] yes=5,no=6,missing=6
		5:[f0<12] yes=11,no=12,missing=12
			11:[f40<0.159861] yes=23,no=24,missing=24
				23:[f0<9] yes=47,no=48,missing=48
					47:[f16<57989] yes=95,no=96,missing=95
						95:[f16<2381] yes=189,no=190,missing=189
							189:leaf=-0.0468685
							190:leaf=-0.0649492
						96:[f57<0.662735] yes=191,no=192,missing=192
							191:leaf=-0.0642984
							192:leaf=-0.0847236
					48:[f5<9] yes=97,no=98,missing=97
						97:[f18<0.017146] yes=193,no=194,missing=194
							193:leaf=-0.10077
							194:leaf=-0.0705945
						98:[f68<2] yes=195,no=196,missing=195
							195:leaf=-0.099006
							196:leaf=-0.0522467
				24:[f36<0.247309] yes=49,no=50,missing=49
					49:[f68<2392] yes=99,no=100,missing=100
						99:[f68<15] yes=197,no=198,missing=198
							197:leaf=-0.0379686
							198:leaf=0.0407906
						100:[f16<15144] yes=199,no=200,missing=199
							199:leaf=-0.0518352
							200:leaf=-0.0685203
					50:[f16<1739] yes=101,no=102,missing=101
						101:[f3<43] yes=201,no=202,missing=202
							201:leaf=-0.0348802
							202:leaf=-0.00167237
						102:[f40<0.290332] yes=203,no=204,missing=204
							203:leaf=-0.0516197
							204:leaf=-0.0265122
			12:[f40<0.18905] yes=25,no=26,missing=26
				25:[f68<2392] yes=51,no=52,missing=52
					51:[f7<0.499999] yes=103,no=104,missing=104
						103:[f16<776722] yes=205,no=206,missing=205
							205:leaf=-0.0135962
							206:leaf=0.216008
						104:[f23<0.001987] yes=207,no=208,missing=207
							207:leaf=-0.0597349
							208:leaf=-0.0792787
					52:[f5<6] yes=105,no=106,missing=105
						105:[f36<0.119535] yes=209,no=210,missing=209
							209:leaf=-0.104335
							210:leaf=-0.0900301
						106:[f36<0.135984] yes=211,no=212,missing=212
							211:leaf=-0.121481
							212:leaf=-0.104577
				26:[f68<77] yes=53,no=54,missing=54
					53:[f67<0.64634] yes=107,no=108,missing=107
						107:[f1<166.467] yes=213,no=214,missing=214
							213:leaf=0.0183917
							214:leaf=-0.0315005
						108:[f37<0.000462] yes=215,no=216,missing=216
							215:leaf=-0.118926
							216:leaf=-0.0538224
					54:[f40<0.256053] yes=109,no=110,missing=109
						109:[f16<119715] yes=217,no=218,missing=217
							217:leaf=-0.0821373
							218:leaf=-0.0990655
						110:[f0<16] yes=219,no=220,missing=220
							219:leaf=-0.0584548
							220:leaf=-0.0751734
		6:[f40<0.182803] yes=13,no=14,missing=13
			13:[f0<26] yes=27,no=28,missing=28
				27:[f68<27] yes=55,no=56,missing=56
					55:[f40<0.155865] yes=111,no=112,missing=111
						111:[f65<0.069766] yes=221,no=222,missing=222
							221:leaf=-0.137809
							222:leaf=-0.103174
						112:[f44<99] yes=223,no=224,missing=224
							223:leaf=-0.116984
							224:leaf=-0.0518074
					56:[f36<0.12709] yes=113,no=114,missing=114
						113:[f16<57989] yes=225,no=226,missing=225
							225:leaf=-0.140153
							226:leaf=-0.152116
						114:[f0<23] yes=227,no=228,missing=228
							227:leaf=-0.126391
							228:leaf=-0.13733
				28:[f68<12] yes=57,no=58,missing=58
					57:[f12<0.019999] yes=115,no=116,missing=116
						115:[f66<0.777777] yes=229,no=230,missing=230
							229:leaf=0.18761
							230:leaf=-0.0759575
						116:[f61<1482] yes=231,no=232,missing=232
							231:leaf=-0.117702
							232:leaf=-0.0838439
					58:[f0<35] yes=117,no=118,missing=118
						117:[f36<0.12414] yes=233,no=234,missing=234
							233:leaf=-0.161091
							234:leaf=-0.152816
						118:[f44<114] yes=235,no=236,missing=235
							235:leaf=-0.144435
							236:leaf=-0.130995
			14:[f0<24] yes=29,no=30,missing=30
				29:[f68<77] yes=59,no=60,missing=60
					59:[f55<0.294117] yes=119,no=120,missing=120
						119:[f0<22] yes=237,no=238,missing=238
							237:leaf=-0.0487344
							238:leaf=-0.100142
						120:[f65<0.083332] yes=239,no=240,missing=240
							239:leaf=0.166099
							240:leaf=-0.0373022
					60:[f40<0.256053] yes=121,no=122,missing=122
						121:[f1<1350.71] yes=241,no=242,missing=242
							241:leaf=-0.123903
							242:leaf=-0.106853
						122:[f7<27] yes=243,no=244,missing=244
							243:leaf=-0.084549
							244:leaf=-0.10783
				30:[f18<0.05409] yes=61,no=62,missing=62
					61:[f68<34] yes=123,no=124,missing=124
						123:[f24<0.000138] yes=245,no=246,missing=245
							245:leaf=-0.0822424
							246:leaf=-0.138604
						124:[f0<35] yes=247,no=248,missing=248
							247:leaf=-0.140807
							248:leaf=-0.117932
					62:[f1<1923.65] yes=125,no=126,missing=126
						125:[f26<228] yes=249,no=250,missing=249
							249:leaf=-0.117265
							250:leaf=-0.14208
						126:[f36<0.202402] yes=251,no=252,missing=252
							251:leaf=-0.12507
							252:leaf=-0.101932
booster[6]:
0:[f0<6] yes=1,no=2,missing=2
	1:[f0<5] yes=3,no=4,missing=4
		3:[f0<2] yes=7,no=8,missing=8
			7:[f25<0.000882] yes=15,no=16,missing=15
				15:[f32<5] yes=31,no=32,missing=31
					31:[f8<0.999999] yes=63,no=64,missing=64
						63:[f27<1831] yes=127,no=128,missing=127
							127:leaf=0.164752
							128:leaf=0.112204
						64:[f55<0.083332] yes=129,no=130,missing=130
							129:leaf=0.14062
							130:leaf=0.148848
					32:[f55<0.155555] yes=65,no=66,missing=65
						65:[f65<0.266666] yes=131,no=132,missing=131
							131:leaf=0.159309
							132:leaf=0.0941961
						66:[f6<68] yes=133,no=134,missing=133
							133:leaf=0.169993
							134:leaf=0.0974867
				16:[f55<0.09489] yes=33,no=34,missing=33
					33:[f25<0.007138] yes=67,no=68,missing=68
						67:[f32<5] yes=135,no=136,missing=135
							135:leaf=0.134389
							136:leaf=0.150072
						68:[f26<860] yes=137,no=138,missing=137
							137:leaf=0.132137
							138:leaf=0.121926
					34:[f32<5] yes=69,no=70,missing=69
						69:[f55<0.175438] yes=139,no=140,missing=140
							139:leaf=0.138172
							140:leaf=0.143929
						70:[f47<0.202898] yes=141,no=142,missing=141
							141:leaf=0.156254
							142:leaf=-0.472096
			8:[f0<3] yes=17,no=18,missing=18
				17:[f25<0.001174] yes=35,no=36,missing=35
					35:[f8<0.999999] yes=71,no=72,missing=72
						71:[f32<4] yes=143,no=144,missing=144
							143:leaf=0.111173
							144:leaf=0.148464
						72:[f32<5] yes=145,no=146,missing=145
							145:leaf=0.123651
							146:leaf=0.141796
					36:[f55<0.152067] yes=73,no=74,missing=73
						73:[f1<1076.99] yes=147,no=148,missing=148
							147:leaf=0.109428
							148:leaf=0.121494
						74:[f28<48] yes=149,no=150,missing=149
							149:leaf=0.120824
							150:leaf=0.142691
				18:[f25<0.002303] yes=37,no=38,missing=37
					37:[f13<0.329999] yes=75,no=76,missing=76
						75:[f39<0.000539] yes=151,no=152,missing=151
							151:leaf=0.132513
							152:leaf=-0.0592579
						76:[f0<4] yes=153,no=154,missing=154
							153:leaf=0.109981
							154:leaf=0.100455
					38:[f55<0.114643] yes=77,no=78,missing=78
						77:[f1<1394.18] yes=155,no=156,missing=156
							155:leaf=0.0852803
							156:leaf=0.103393
						78:[f18<0.04191] yes=157,no=158,missing=158
							157:leaf=0.0965617
							158:leaf=0.106449
		4:[f57<0.65064] yes=9,no=10,missing=9
			9:[f28<43] yes=19,no=20,missing=20
				19:[f6<0.999999] yes=39,no=40,missing=39
					39:[f62<45] yes=79,no=80,missing=80
						79:[f28<35] yes=159,no=160,missing=160
							159:leaf=0.0295241
							160:leaf=0.0820891
						80:[f68<3] yes=161,no=162,missing=161
							161:leaf=0.0397627
							162:leaf=0.15196
					40:[f57<0.562499] yes=81,no=82,missing=82
						81:[f16<469959] yes=163,no=164,missing=164
							163:leaf=0.0568669
							164:leaf=0.116704
						82:[f18<0.024001] yes=165,no=166,missing=166
							165:leaf=0.0216812
							166:leaf=0.0447173
				20:[f44<65] yes=41,no=42,missing=41
					41:[f1<1045.51] yes=83,no=84,missing=84
						83:[f45<9] yes=167,no=168,missing=168
							167:leaf=-0.0184246
							168:leaf=0.0726253
						84:[f46<0.886075] yes=169,no=170,missing=169
							169:leaf=0.104143
							170:leaf=-0.0580552
					42:[f18<0.022668] yes=85,no=86,missing=86
						85:[f60<2] yes=171,no=172,missing=172
							171:leaf=-0.053738
							172:leaf=0.0344035
						86:[f24<0.000835] yes=173,no=174,missing=174
							173:leaf=0.0584668
							174:leaf=0.082519
			10:[f1<1394.18] yes=21,no=22,missing=22
				21:[f28<45] yes=43,no=44,missing=44
					43:[f18<0.026855] yes=87,no=88,missing=88
						87:[f6<5] yes=175,no=176,missing=175
							175:leaf=0.0396859
							176:leaf=0.0132135
						88:[f27<2305] yes=177,no=178,missing=178
							177:leaf=0.0360737
							178:leaf=0.0105506
					44:[f69<3] yes=89,no=90,missing=89
						89:[f2<1033.94] yes=179,no=180,missing=180
							179:leaf=0.0332996
							180:leaf=0.0548332
						90:[f2<233.349] yes=181,no=182,missing=182
							181:leaf=-0.272584
							182:leaf=0.125301
				22:[f16<222196] yes=45,no=46,missing=46
					45:[f28<46] yes=91,no=92,missing=91
						91:[f16<22394] yes=183,no=184,missing=184
							183:leaf=0.026553
							184:leaf=0.0495541
						92:[f4<294] yes=185,no=186,missing=186
							185:leaf=0.0931768
							186:leaf=0.0164837
					46:[f27<824] yes=93,no=94,missing=94
						93:[f47<0.042372] yes=187,no=188,missing=188
							187:leaf=0.014437
							188:leaf=0.0890485
						94:[f16<374778] yes=189,no=190,missing=189
							189:leaf=0.0320022
							190:leaf=0.0665851
	2:[f0<21] yes=5,no=6,missing=6
		5:[f0<12] yes=11,no=12,missing=12
			11:[f0<8] yes=23,no=24,missing=24
				23:[f16<75197] yes=47,no=48,missing=47
					47:[f68<2392] yes=95,no=96,missing=96
						95:[f70<5] yes=191,no=192,missing=191
							191:leaf=-0.0207328
							192:leaf=0.0273771
						96:[f2<233.349] yes=193,no=194,missing=193
							193:leaf=-0.0344209
							194:leaf=-0.0497739
					48:[f1<1268.74] yes=97,no=98,missing=98
						97:[f68<2] yes=195,no=196,missing=195
							195:leaf=-0.0643237
							196:leaf=-0.0263337
						98:[f63<9] yes=197,no=198,missing=197
							197:leaf=-0.0472073
							198:leaf=-0.0223888
				24:[f16<4166] yes=49,no=50,missing=49
					49:[f18<0.015777] yes=99,no=100,missing=99
						99:[f39<0.00015] yes=199,no=200,missing=199
							199:leaf=-0.0985905
							200:leaf=-0.054428
						100:[f28<47] yes=201,no=202,missing=201
							201:leaf=-0.0493923
							202:leaf=-0.0246909
					50:[f18<0.036409] yes=101,no=102,missing=102
						101:[f57<0.70909] yes=203,no=204,missing=203
							203:leaf=-0.0707211
							204:leaf=-0.0892747
						102:[f1<1394.18] yes=205,no=206,missing=206
							205:leaf=-0.0667004
							206:leaf=-0.0498167
			12:[f18<0.038342] yes=25,no=26,missing=26
				25:[f69<32] yes=51,no=52,missing=52
					51:[f25<0.001278] yes=103,no=104,missing=103
						103:[f68<2] yes=207,no=208,missing=208
							207:leaf=-0.0433806
							208:leaf=-0.00387064
						104:[f13<1.02] yes=209,no=210,missing=209
							209:leaf=-0.0487919
							210:leaf=-0.0855886
					52:[f6<7] yes=105,no=106,missing=105
						105:[f0<14] yes=211,no=212,missing=212
							211:leaf=-0.0675787
							212:leaf=-0.0866172
						106:[f0<16] yes=213,no=214,missing=214
							213:leaf=-0.0940404
							214:leaf=-0.106638
				26:[f26<299] yes=53,no=54,missing=53
					53:[f28<45] yes=107,no=108,missing=107
						107:[f49<65] yes=215,no=216,missing=216
							215:leaf=-0.0549107
							216:leaf=-0.0748354
						108:[f69<3] yes=217,no=218,missing=218
							217:leaf=-0.00367587
							218:leaf=-0.0535803
					54:[f1<1592.08] yes=109,no=110,missing=110
						109:[f18<0.048552] yes=219,no=220,missing=220
							219:leaf=-0.097381
							220:leaf=-0.0813081
						110:[f57<0.711186] yes=221,no=222,missing=221
							221:leaf=-0.0641994
							222:leaf=-0.0837607
		6:[f18<0.04117] yes=13,no=14,missing=14
			13:[f0<24] yes=27,no=28,missing=28
				27:[f68<35] yes=55,no=56,missing=56
					55:[f27<461] yes=111,no=112,missing=111
						111:[f26<721] yes=223,no=224,missing=223
							223:leaf=-0.0708513
							224:leaf=0.215607
						112:[f4<84] yes=225,no=226,missing=226
							225:leaf=-0.0111304
							226:leaf=-0.115238
					56:[f16<62772] yes=113,no=114,missing=113
						113:[f27<15] yes=227,no=228,missing=227
							227:leaf=-0.104636
							228:leaf=-0.118256
						114:[f25<0.004262] yes=229,no=230,missing=229
							229:leaf=-0.122917
							230:leaf=-0.13875
				28:[f68<6] yes=57,no=58,missing=58
					57:[f8<0.999999] yes=115,no=116,missing=115
						115:[f16<101042] yes=231,no=232,missing=232
							231:leaf=-0.0582047
							232:leaf=-0.115799
						116:[f44<99] yes=233,no=234,missing=234
							233:leaf=-0.117696
							234:leaf=-0.0946962
					58:[f18<0.023352] yes=117,no=118,missing=118
						117:[f16<420] yes=235,no=236,missing=235
							235:leaf=-0.135736
							236:leaf=-0.149692
						118:[f16<9454] yes=237,no=238,missing=237
							237:leaf=-0.125992
							238:leaf=-0.140553
			14:[f0<25] yes=29,no=30,missing=30
				29:[f68<78] yes=59,no=60,missing=60
					59:[f18<0.043548] yes=119,no=120,missing=120
						119:[f6<161] yes=239,no=240,missing=239
							239:leaf=-0.14194
							240:leaf=-0.0050876
						120:[f11<37] yes=241,no=242,missing=242
							241:leaf=-0.0774109
							242:leaf=-0.0423765
					60:[f27<233] yes=121,no=122,missing=122
						121:[f4<229] yes=243,no=244,missing=244
							243:leaf=-0.0962503
							244:leaf=-0.0298013
						122:[f18<0.059507] yes=245,no=246,missing=245
							245:leaf=-0.115014
							246:leaf=-0.0956696
				30:[f44<224] yes=61,no=62,missing=61
					61:[f26<225] yes=123,no=124,missing=124
						123:[f28<43] yes=247,no=248,missing=248
							247:leaf=-0.123015
							248:leaf=-0.102382
						124:[f1<1766.39] yes=249,no=250,missing=250
							249:leaf=-0.137066
							250:leaf=-0.123578
					62:[f68<6] yes=125,no=126,missing=126
						125:[f18<0.054076] yes=251,no=252,missing=252
							251:leaf=-0.0242804
							252:leaf=-0.109414
						126:[f0<34] yes=253,no=254,missing=254
							253:leaf=-0.113629
							254:leaf=-0.0899602
booster[7]:
0:[f1<1018.14] yes=1,no=2,missing=2
	1:[f4<73] yes=3,no=4,missing=3
		3:[f18<0.031663] yes=7,no=8,missing=7
			7:[f1<226.504] yes=15,no=16,missing=16
				15:[f22<0.020391] yes=31,no=32,missing=32
					31:[f22<0.014401] yes=63,no=64,missing=64
						63:[f5<29] yes=127,no=128,missing=127
							127:leaf=-0.0462877
							128:leaf=0.0719686
						64:[f53<23] yes=129,no=130,missing=129
							129:leaf=-0.0201309
							130:leaf=0.0222831
					32:[f40<0.169594] yes=65,no=66,missing=65
						65:[f18<0.02404] yes=131,no=132,missing=132
							131:leaf=0.00261846
							132:leaf=0.0312242
						66:[f44<82] yes=133,no=134,missing=133
							133:leaf=-0.0365013
							134:leaf=-0.00899275
				16:[f22<0.023194] yes=33,no=34,missing=34
					33:[f22<0.017114] yes=67,no=68,missing=68
						67:[f70<2] yes=135,no=136,missing=135
							135:leaf=-0.0667968
							136:leaf=0.0640646
						68:[f1<549.121] yes=137,no=138,missing=138
							137:leaf=-0.0289983
							138:leaf=-0.0517123
					34:[f70<21] yes=69,no=70,missing=70
						69:[f40<0.146376] yes=139,no=140,missing=139
							139:leaf=0.0499333
							140:leaf=0.00311346
						70:[f55<0.362902] yes=141,no=142,missing=141
							141:leaf=-0.0167514
							142:leaf=-0.0393222
			8:[f1<343.56] yes=17,no=18,missing=18
				17:[f40<0.193751] yes=35,no=36,missing=36
					35:[f22<0.043393] yes=71,no=72,missing=72
						71:[f1<115.3] yes=143,no=144,missing=144
							143:leaf=0.0565568
							144:leaf=0.0318725
						72:[f1<115.3] yes=145,no=146,missing=146
							145:leaf=0.0860239
							146:leaf=0.0597688
					36:[f18<0.057676] yes=73,no=74,missing=74
						73:[f18<0.041921] yes=147,no=148,missing=148
							147:leaf=-0.00344917
							148:leaf=0.0216353
						74:[f40<0.324896] yes=149,no=150,missing=150
							149:leaf=0.0685809
							150:leaf=0.027948
				18:[f18<0.062189] yes=37,no=38,missing=38
					37:[f40<0.155959] yes=75,no=76,missing=76
						75:[f1<681.752] yes=151,no=152,missing=152
							151:leaf=0.0372683
							152:leaf=0.0088516
						76:[f44<80] yes=153,no=154,missing=154
							153:leaf=-0.0251814
							154:leaf=-0.000153728
					38:[f40<0.324896] yes=77,no=78,missing=78
						77:[f18<0.077052] yes=155,no=156,missing=156
							155:leaf=0.040015
							156:leaf=0.0649015
						78:[f18<0.098883] yes=157,no=158,missing=158
							157:leaf=-0.0091766
							158:leaf=0.0660477
		4:[f1<304.84] yes=9,no=10,missing=10
			9:[f58<31] yes=19,no=20,missing=19
				19:[f18<0.036498] yes=39,no=40,missing=40
					39:[f1<115.3] yes=79,no=80,missing=80
						79:[f37<0.002905] yes=159,no=160,missing=160
							159:leaf=0.0287137
							160:leaf=0.0588158
						80:[f2<1958.74] yes=161,no=162,missing=162
							161:leaf=0.0373653
							162:leaf=0.0124187
					40:[f3<47] yes=81,no=82,missing=82
						81:[f40<0.186562] yes=163,no=164,missing=164
							163:leaf=0.0788504
							164:leaf=0.0575618
						82:[f1<136.4] yes=165,no=166,missing=166
							165:leaf=0.044876
							166:leaf=0.00447605
				20:[f22<0.036251] yes=41,no=42,missing=42
					41:[f70<1214] yes=83,no=84,missing=84
						83:[f70<5] yes=167,no=168,missing=168
							167:leaf=0.0930569
							168:leaf=0.127621
						84:[f3<46] yes=169,no=170,missing=170
							169:leaf=0.0583494
							170:leaf=0.0161877
					42:[f1<115.3] yes=85,no=86,missing=86
						85:[f39<0.001788] yes=171,no=172,missing=172
							171:leaf=0.0845752
							172:leaf=0.106799
						86:[f72<2] yes=173,no=174,missing=174
							173:leaf=0.130113
							174:leaf=0.0696291
			10:[f22<0.035217] yes=21,no=22,missing=21
				21:[f58<64] yes=43,no=44,missing=43
					43:[f1<634.84] yes=87,no=88,missing=88
						87:[f22<0.022371] yes=175,no=176,missing=175
							175:leaf=-0.0223569
							176:leaf=0.0167804
						88:[f22<0.026016] yes=177,no=178,missing=178
							177:leaf=-0.0305634
							178:leaf=-0.00580015
					44:[f32<4] yes=89,no=90,missing=89
						89:[f70<86] yes=179,no=180,missing=180
							179:leaf=0.0697943
							180:leaf=0.0208327
						90:[f44<30] yes=181,no=182,missing=182
							181:leaf=0.0823905
							182:leaf=0.0505432
				22:[f18<0.049805] yes=45,no=46,missing=45
					45:[f58<106] yes=91,no=92,missing=91
						91:[f37<0.008129] yes=183,no=184,missing=184
							183:leaf=0.0178058
							184:leaf=0.0416054
						92:[f1<593.036] yes=185,no=186,missing=186
							185:leaf=0.0644981
							186:leaf=0.041931
					46:[f18<0.085025] yes=93,no=94,missing=94
						93:[f32<5] yes=187,no=188,missing=187
							187:leaf=0.0472302
							188:leaf=0.077855
						94:[f28<47] yes=189,no=190,missing=190
							189:leaf=0.0808217
							190:leaf=0.0323991
	2:[f1<1763.84] yes=5,no=6,missing=6
		5:[f22<0.043393] yes=11,no=12,missing=11
			11:[f22<0.030769] yes=23,no=24,missing=23
				23:[f58<47] yes=47,no=48,missing=47
					47:[f22<0.02141] yes=95,no=96,missing=96
						95:[f22<0.014401] yes=191,no=192,missing=192
							191:leaf=-0.0973133
							192:leaf=-0.0687785
						96:[f28<42] yes=193,no=194,missing=194
							193:leaf=-0.0580305
							194:leaf=-0.0355
					48:[f32<4] yes=97,no=98,missing=97
						97:[f4<748] yes=195,no=196,missing=196
							195:leaf=-0.029017
							196:leaf=0.0143055
						98:[f4<195] yes=197,no=198,missing=198
							197:leaf=-0.0485183
							198:leaf=0.0257453
				24:[f4<170] yes=49,no=50,missing=49
					49:[f3<34] yes=99,no=100,missing=100
						99:[f54<12] yes=199,no=200,missing=199
							199:leaf=-0.0354795
							200:leaf=-0.0743374
						100:[f70<22] yes=201,no=202,missing=202
							201:leaf=0.0266354
							202:leaf=-0.0252947
					50:[f1<1306.07] yes=101,no=102,missing=102
						101:[f32<4] yes=203,no=204,missing=203
							203:leaf=0.00297209
							204:leaf=0.0375199
						102:[f18<0.049805] yes=205,no=206,missing=205
							205:leaf=-0.0174595
							206:leaf=0.0244046
			12:[f18<0.062189] yes=25,no=26,missing=26
				25:[f3<38] yes=51,no=52,missing=52
					51:[f32<5] yes=103,no=104,missing=103
						103:[f44<122] yes=207,no=208,missing=207
							207:leaf=-0.0268064
							208:leaf=0.0109837
						104:[f18<0.029039] yes=209,no=210,missing=210
							209:leaf=-0.101233
							210:leaf=0.0278292
					52:[f72<2] yes=105,no=106,missing=106
						105:[f55<0.234512] yes=211,no=212,missing=211
							211:leaf=0.104957
							212:leaf=0.0170385
						106:[f55<0.266666] yes=213,no=214,missing=214
							213:leaf=0.0149144
							214:leaf=-0.00881766
				26:[f18<0.098883] yes=53,no=54,missing=53
					53:[f55<0.24468] yes=107,no=108,missing=108
						107:[f1<1306.07] yes=215,no=216,missing=216
							215:leaf=0.0471088
							216:leaf=0.028195
						108:[f40<0.324896] yes=217,no=218,missing=217
							217:leaf=0.0207651
							218:leaf=-0.0256233
					54:[f29<0.108695] yes=109,no=110,missing=109
						109:[f37<0.004353] yes=219,no=220,missing=220
							219:leaf=0.0499002
							220:leaf=0.0804088
						110:[f55<0.135265] yes=221,no=222,missing=222
							221:leaf=-0.20596
							222:leaf=-0.0617646
		6:[f22<0.040073] yes=13,no=14,missing=14
			13:[f28<42] yes=27,no=28,missing=27
				27:[f22<0.024001] yes=55,no=56,missing=56
					55:[f22<0.019005] yes=111,no=112,missing=112
						111:[f44<30] yes=223,no=224,missing=224
							223:leaf=-0.0800388
							224:leaf=-0.112077
						112:[f57<0.461537] yes=225,no=226,missing=226
							225:leaf=-0.0257966
							226:leaf=-0.089444
					56:[f4<26] yes=113,no=114,missing=113
						113:[f16<25047.2] yes=227,no=228,missing=228
							227:leaf=-0.0645976
							228:leaf=-0.0259738
						114:[f1<3000] yes=229,no=230,missing=230
							229:leaf=-0.0683971
							230:leaf=-0.0909373
				28:[f1<3000] yes=57,no=58,missing=58
					57:[f70<86] yes=115,no=116,missing=116
						115:[f70<4] yes=231,no=232,missing=232
							231:leaf=0.00514176
							232:leaf=0.0646936
						116:[f22<0.031273] yes=233,no=234,missing=234
							233:leaf=-0.0580403
							234:leaf=-0.0373446
					58:[f67<0.666666] yes=117,no=118,missing=117
						117:[f16<47134] yes=235,no=236,missing=236
							235:leaf=-0.0742685
							236:leaf=-0.0390328
						118:[f4<94] yes=237,no=238,missing=237
							237:leaf=-0.064198
							238:leaf=-0.0904722
			14:[f1<3000] yes=29,no=30,missing=30
				29:[f18<0.064946] yes=59,no=60,missing=60
					59:[f3<40] yes=119,no=120,missing=119
						119:[f54<23] yes=239,no=240,missing=239
							239:leaf=-0.0186963
							240:leaf=-0.047487
						120:[f72<2] yes=241,no=242,missing=242
							241:leaf=0.0792342
							242:leaf=-0.0204355
					60:[f37<0.002905] yes=121,no=122,missing=122
						121:[f8<22] yes=243,no=244,missing=243
							243:leaf=-0.00393427
							244:leaf=-0.046852
						122:[f58<114] yes=245,no=246,missing=246
							245:leaf=0.0259822
							246:leaf=-0.00664786
				30:[f22<0.063706] yes=61,no=62,missing=62
					61:[f67<0.650793] yes=123,no=124,missing=123
						123:[f28<42] yes=247,no=248,missing=248
							247:leaf=-0.0560925
							248:leaf=-0.0240482
						124:[f52<40] yes=249,no=250,missing=249
							249:leaf=-0.0319973
							250:leaf=-0.0700384
					62:[f40<0.216688] yes=125,no=126,missing=126
						125:[f3<43] yes=251,no=252,missing=251
							251:leaf=-0.0514944
							252:leaf=-0.018422
						126:[f8<49] yes=253,no=254,missing=253
							253:leaf=-0.0019112
							254:leaf=-0.0408671
booster[8]:
0:[f22<0.035259] yes=1,no=2,missing=1
	1:[f68<2392] yes=3,no=4,missing=4
		3:[f68<4] yes=7,no=8,missing=8
			7:[f4<100] yes=15,no=16,missing=15
				15:[f68<2] yes=31,no=32,missing=32
					31:[f22<0.017153] yes=63,no=64,missing=64
						63:[f40<0.150089] yes=127,no=128,missing=127
							127:leaf=-0.0376201
							128:leaf=0.11533
						64:[f5<92] yes=129,no=130,missing=130
							129:leaf=0.00331172
							130:leaf=0.0316539
					32:[f5<26] yes=65,no=66,missing=66
						65:[f15<23] yes=131,no=132,missing=131
							131:leaf=-0.010074
							132:leaf=0.0230336
						66:[f9<25] yes=133,no=134,missing=134
							133:leaf=0.0135358
							134:leaf=0.0513603
				16:[f68<2] yes=33,no=34,missing=34
					33:[f2<514.684] yes=67,no=68,missing=68
						67:[f59<12] yes=135,no=136,missing=135
							135:leaf=-0.000774392
							136:leaf=0.064263
						68:[f5<111] yes=137,no=138,missing=138
							137:leaf=0.0228492
							138:leaf=0.0389468
					34:[f2<740.38] yes=69,no=70,missing=70
						69:[f36<0.130295] yes=139,no=140,missing=140
							139:leaf=0.0904495
							140:leaf=0.0399546
						70:[f9<148] yes=141,no=142,missing=142
							141:leaf=0.0379297
							142:leaf=0.0638462
			8:[f68<7] yes=17,no=18,missing=18
				17:[f59<10] yes=35,no=36,missing=35
					35:[f6<11] yes=71,no=72,missing=72
						71:[f2<762.94] yes=143,no=144,missing=144
							143:leaf=0.0551639
							144:leaf=-0.00549691
						72:[f53<105] yes=145,no=146,missing=145
							145:leaf=0.0510724
							146:leaf=-0.0743181
					36:[f40<0.113834] yes=73,no=74,missing=73
						73:[f52<35] yes=147,no=148,missing=148
							147:leaf=0.210443
							148:leaf=0.080479
						74:[f18<0.033141] yes=149,no=150,missing=150
							149:leaf=0.0473879
							150:leaf=0.0728947
				18:[f61<9] yes=37,no=38,missing=37
					37:[f57<0.804953] yes=75,no=76,missing=75
						75:[f36<0.166202] yes=151,no=152,missing=151
							151:leaf=0.06174
							152:leaf=-0.0138766
						76:[f22<0.020387] yes=153,no=154,missing=153
							153:leaf=0.0447481
							154:leaf=0.160441
					38:[f12<4.14] yes=77,no=78,missing=77
						77:[f4<437] yes=155,no=156,missing=156
							155:leaf=0.0899638
							156:leaf=0.120668
						78:[f68<8] yes=157,no=158,missing=158
							157:leaf=-0.0720551
							158:leaf=0.0700958
		4:[f4<94] yes=9,no=10,missing=9
			9:[f22<0.022417] yes=19,no=20,missing=20
				19:[f22<0.017153] yes=39,no=40,missing=40
					39:[f2<815.969] yes=79,no=80,missing=80
						79:[f46<0.565216] yes=159,no=160,missing=159
							159:leaf=-0.0514099
							160:leaf=0.0193647
						80:[f15<130] yes=161,no=162,missing=162
							161:leaf=-0.0781105
							162:leaf=-0.0589268
					40:[f53<36] yes=81,no=82,missing=81
						81:[f2<792.453] yes=163,no=164,missing=164
							163:leaf=-0.0303526
							164:leaf=-0.050461
						82:[f12<0.329999] yes=165,no=166,missing=165
							165:leaf=-0.0236052
							166:leaf=0.00862178
				20:[f2<1115.49] yes=41,no=42,missing=42
					41:[f36<0.124475] yes=83,no=84,missing=84
						83:[f22<0.026627] yes=167,no=168,missing=167
							167:leaf=-0.0124363
							168:leaf=0.00950367
						84:[f15<167] yes=169,no=170,missing=170
							169:leaf=-0.0268766
							170:leaf=-0.0128596
					42:[f3<37] yes=85,no=86,missing=86
						85:[f53<13] yes=171,no=172,missing=171
							171:leaf=-0.0366349
							172:leaf=-0.0517851
						86:[f9<23] yes=173,no=174,missing=173
							173:leaf=-0.0292152
							174:leaf=-0.00931128
			10:[f2<1207.26] yes=21,no=22,missing=22
				21:[f9<284] yes=43,no=44,missing=44
					43:[f53<118] yes=87,no=88,missing=88
						87:[f2<124.939] yes=175,no=176,missing=176
							175:leaf=-0.0114191
							176:leaf=0.00694526
						88:[f62<109] yes=177,no=178,missing=177
							177:leaf=0.0203417
							178:leaf=0.0675373
					44:[f12<0.499999] yes=89,no=90,missing=90
						89:[f3<39] yes=179,no=180,missing=180
							179:leaf=0.0250956
							180:leaf=0.0770801
						90:[f32<4] yes=181,no=182,missing=181
							181:leaf=0.0224135
							182:leaf=0.0571137
				22:[f53<111] yes=45,no=46,missing=46
					45:[f9<2] yes=91,no=92,missing=91
						91:[f47<0.144736] yes=183,no=184,missing=184
							183:leaf=-0.0251134
							184:leaf=0.00727949
						92:[f22<0.029759] yes=185,no=186,missing=186
							185:leaf=-0.0307754
							186:leaf=-0.0149396
					46:[f24<3.1e-05] yes=93,no=94,missing=93
						93:[f49<1979] yes=187,no=188,missing=188
							187:leaf=0.0206272
							188:leaf=0.0629706
						94:[f59<70] yes=189,no=190,missing=189
							189:leaf=-0.0130794
							190:leaf=0.0106403
	2:[f68<4784] yes=5,no=6,missing=6
		5:[f68<4] yes=11,no=12,missing=12
			11:[f68<2] yes=23,no=24,missing=24
				23:[f24<0.000205] yes=47,no=48,missing=48
					47:[f58<45] yes=95,no=96,missing=95
						95:[f29<0.094936] yes=191,no=192,missing=192
							191:leaf=-0.183314
							192:leaf=0.0213127
						96:[f9<20] yes=193,no=194,missing=193
							193:leaf=0.053655
							194:leaf=0.0350624
					48:[f18<0.062072] yes=97,no=98,missing=98
						97:[f59<1516] yes=195,no=196,missing=196
							195:leaf=0.0428472
							196:leaf=0.0124897
						98:[f34<0.689654] yes=197,no=198,missing=197
							197:leaf=0.0595039
							198:leaf=0.0149103
				24:[f24<0.000236] yes=49,no=50,missing=50
					49:[f4<154] yes=99,no=100,missing=99
						99:[f18<0.048422] yes=199,no=200,missing=200
							199:leaf=0.0297706
							200:leaf=0.0501977
						100:[f6<116] yes=201,no=202,missing=201
							201:leaf=0.0632827
							202:leaf=0.0451805
					50:[f52<40] yes=101,no=102,missing=102
						101:[f55<0.312499] yes=203,no=204,missing=203
							203:leaf=0.0550835
							204:leaf=0.00120217
						102:[f2<792.453] yes=205,no=206,missing=206
							205:leaf=0.0833635
							206:leaf=0.0628729
			12:[f68<8] yes=25,no=26,missing=26
				25:[f58<80] yes=51,no=52,missing=51
					51:[f2<1177.09] yes=103,no=104,missing=104
						103:[f24<0.000258] yes=207,no=208,missing=208
							207:leaf=0.0659843
							208:leaf=0.0963828
						104:[f68<6] yes=209,no=210,missing=210
							209:leaf=0.0577048
							210:leaf=0.0746147
					52:[f11<9] yes=105,no=106,missing=105
						105:[f3<37] yes=211,no=212,missing=212
							211:leaf=0.0653539
							212:leaf=0.0955915
						106:[f43<0.001024] yes=213,no=214,missing=214
							213:leaf=0.0190207
							214:leaf=0.0747626
				26:[f68<41] yes=53,no=54,missing=54
					53:[f55<0.333332] yes=107,no=108,missing=107
						107:[f59<22] yes=215,no=216,missing=216
							215:leaf=0.0867156
							216:leaf=0.10617
						108:[f11<22] yes=217,no=218,missing=217
							217:leaf=0.0727166
							218:leaf=-0.0357295
					54:[f68<147] yes=109,no=110,missing=110
						109:[f12<13] yes=219,no=220,missing=219
							219:leaf=0.136421
							220:leaf=-0.0642764
						110:[f6<7] yes=221,no=222,missing=222
							221:leaf=0.0712511
							222:leaf=0.186822
		6:[f22<0.050541] yes=13,no=14,missing=14
			13:[f4<162] yes=27,no=28,missing=27
				27:[f3<36] yes=55,no=56,missing=55
					55:[f2<922.825] yes=111,no=112,missing=112
						111:[f36<0.183712] yes=223,no=224,missing=224
							223:leaf=0.00304411
							224:leaf=-0.0208749
						112:[f3<31] yes=225,no=226,missing=226
							225:leaf=-0.0507921
							226:leaf=-0.0297875
					56:[f36<0.194275] yes=113,no=114,missing=114
						113:[f2<1507.92] yes=227,no=228,missing=228
							227:leaf=0.0132673
							228:leaf=-0.00306875
						114:[f18<0.030587] yes=229,no=230,missing=230
							229:leaf=-0.0421266
							230:leaf=-0.0122122
				28:[f2<1207.26] yes=57,no=58,missing=58
					57:[f58<133] yes=115,no=116,missing=115
						115:[f9<3774] yes=231,no=232,missing=232
							231:leaf=0.0187932
							232:leaf=0.0428683
						116:[f57<0.716171] yes=233,no=234,missing=234
							233:leaf=0.0514462
							234:leaf=0.027768
					58:[f58<133] yes=117,no=118,missing=117
						117:[f9<119] yes=235,no=236,missing=236
							235:leaf=-0.00202602
							236:leaf=0.0102186
						118:[f23<0.00442] yes=237,no=238,missing=237
							237:leaf=0.0293631
							238:leaf=0.00653857
			14:[f2<1330.05] yes=29,no=30,missing=30
				29:[f22<0.070087] yes=59,no=60,missing=60
					59:[f4<78] yes=119,no=120,missing=119
						119:[f36<0.214064] yes=239,no=240,missing=240
							239:leaf=0.0286051
							240:leaf=-0.00272574
						120:[f61<91] yes=241,no=242,missing=241
							241:leaf=0.0323216
							242:leaf=0.0489548
					60:[f18<0.098515] yes=121,no=122,missing=121
						121:[f55<0.444443] yes=243,no=244,missing=243
							243:leaf=0.0465383
							244:leaf=-0.00597376
						122:[f36<0.157683] yes=245,no=246,missing=246
							245:leaf=0.0442149
							246:leaf=0.0729573
				30:[f22<0.070087] yes=61,no=62,missing=62
					61:[f4<78] yes=123,no=124,missing=123
						123:[f18<0.025288] yes=247,no=248,missing=248
							247:leaf=-0.0814035
							248:leaf=0.000990936
						124:[f3<35] yes=249,no=250,missing=250
							249:leaf=-0.0110176
							250:leaf=0.0173186
					62:[f18<0.098515] yes=125,no=126,missing=126
						125:[f18<0.041943] yes=251,no=252,missing=252
							251:leaf=-0.0234501
							252:leaf=0.0253638
						126:[f40<0.272259] yes=253,no=254,missing=254
							253:leaf=0.0375102
							254:leaf=0.0567537
booster[9]:
0:[f0<6] yes=1,no=2,missing=2
	1:[f0<5] yes=3,no=4,missing=4
		3:[f0<2] yes=7,no=8,missing=8
			7:[f37<0.002469] yes=15,no=16,missing=15
				15:[f8<0.999999] yes=31,no=32,missing=32
					31:[f32<10] yes=63,no=64,missing=64
						63:[f16<1.28349e+06] yes=127,no=128,missing=128
							127:leaf=0.13682
							128:leaf=0.0939022
						64:[f16<1.28349e+06] yes=129,no=130,missing=129
							129:leaf=0.158172
							130:leaf=0.0975558
					32:[f32<5] yes=65,no=66,missing=65
						65:[f55<0.076086] yes=131,no=132,missing=132
							131:leaf=0.124653
							132:leaf=0.133649
						66:[f55<0.148687] yes=133,no=134,missing=134
							133:leaf=0.143026
							134:leaf=0.15591
				16:[f36<0.166048] yes=33,no=34,missing=34
					33:[f55<0.094748] yes=67,no=68,missing=68
						67:[f24<0.000247] yes=135,no=136,missing=136
							135:leaf=0.118485
							136:leaf=0.106902
						68:[f32<5] yes=137,no=138,missing=137
							137:leaf=0.121826
							138:leaf=0.13626
					34:[f32<3] yes=69,no=70,missing=69
						69:[f59<5] yes=139,no=140,missing=139
							139:leaf=0.147587
							140:leaf=0.129633
						70:[f23<0.023419] yes=141,no=142,missing=142
							141:leaf=0.147248
							142:leaf=-0.0246248
			8:[f0<3] yes=17,no=18,missing=18
				17:[f37<0.001426] yes=35,no=36,missing=35
					35:[f8<0.999999] yes=71,no=72,missing=72
						71:[f32<4] yes=143,no=144,missing=144
							143:leaf=0.0893734
							144:leaf=0.135427
						72:[f55<0.076086] yes=145,no=146,missing=145
							145:leaf=0.101993
							146:leaf=0.11504
					36:[f40<0.17785] yes=73,no=74,missing=73
						73:[f32<5] yes=147,no=148,missing=147
							147:leaf=0.0948862
							148:leaf=0.119248
						74:[f40<0.257962] yes=149,no=150,missing=150
							149:leaf=0.10821
							150:leaf=0.123764
				18:[f36<0.170469] yes=37,no=38,missing=38
					37:[f9<5] yes=75,no=76,missing=75
						75:[f13<0.039999] yes=151,no=152,missing=152
							151:leaf=0.117549
							152:leaf=0.0913823
						76:[f60<5] yes=153,no=154,missing=153
							153:leaf=0.091543
							154:leaf=0.076768
					38:[f40<0.246642] yes=77,no=78,missing=78
						77:[f8<0.999999] yes=155,no=156,missing=156
							155:leaf=0.119902
							156:leaf=0.0955108
						78:[f26<1504] yes=157,no=158,missing=157
							157:leaf=0.111627
							158:leaf=0.093987
		4:[f40<0.206238] yes=9,no=10,missing=10
			9:[f39<7e-05] yes=19,no=20,missing=19
				19:[f3<37] yes=39,no=40,missing=39
					39:[f48<24] yes=79,no=80,missing=79
						79:[f44<341] yes=159,no=160,missing=160
							159:leaf=-0.00918396
							160:leaf=0.0747647
						80:[f26<2623] yes=161,no=162,missing=161
							161:leaf=0.0384398
							162:leaf=-0.052689
					40:[f57<0.623852] yes=81,no=82,missing=81
						81:[f58<18] yes=163,no=164,missing=163
							163:leaf=0.0608996
							164:leaf=0.0845279
						82:[f34<0.272726] yes=165,no=166,missing=165
							165:leaf=0.0496713
							166:leaf=0.0103479
				20:[f55<0.106081] yes=41,no=42,missing=42
					41:[f36<0.139266] yes=83,no=84,missing=84
						83:[f69<1054] yes=167,no=168,missing=168
							167:leaf=0.0492995
							168:leaf=0.0120983
						84:[f22<0.059243] yes=169,no=170,missing=170
							169:leaf=0.0353813
							170:leaf=-0.00259765
					42:[f3<39] yes=85,no=86,missing=85
						85:[f52<96] yes=171,no=172,missing=171
							171:leaf=0.0392981
							172:leaf=0.0167042
						86:[f35<62] yes=173,no=174,missing=173
							173:leaf=0.0375566
							174:leaf=0.0917152
			10:[f40<0.291513] yes=21,no=22,missing=22
				21:[f13<11] yes=43,no=44,missing=43
					43:[f22<0.074415] yes=87,no=88,missing=88
						87:[f16<743] yes=175,no=176,missing=176
							175:leaf=0.0111374
							176:leaf=0.0559802
						88:[f59<122] yes=177,no=178,missing=177
							177:leaf=0.0363433
							178:leaf=-0.0256871
					44:[f34<0.037036] yes=89,no=90,missing=90
						89:[f68<3] yes=179,no=180,missing=180
							179:leaf=0.00669651
							180:leaf=0.192916
						90:[f36<0.166048] yes=181,no=182,missing=182
							181:leaf=-0.0544526
							182:leaf=0.0239756
				22:[f23<0.00058] yes=45,no=46,missing=46
					45:[f9<8] yes=91,no=92,missing=92
						91:[f69<6] yes=183,no=184,missing=184
							183:leaf=-0.228969
							184:leaf=-0.00971443
						92:[f61<45] yes=185,no=186,missing=185
							185:leaf=0.0707253
							186:leaf=-0.139211
					46:[f62<10] yes=93,no=94,missing=93
						93:[f55<0.085713] yes=187,no=188,missing=188
							187:leaf=-0.00672577
							188:leaf=0.0958535
						94:[f39<0.000285] yes=189,no=190,missing=190
							189:leaf=0.121385
							190:leaf=0.0565814
	2:[f0<21] yes=5,no=6,missing=6
		5:[f0<10] yes=11,no=12,missing=12
			11:[f16<34970] yes=23,no=24,missing=23
				23:[f40<0.197789] yes=47,no=48,missing=48
					47:[f0<7] yes=95,no=96,missing=96
						95:[f16<9420] yes=191,no=192,missing=191
							191:leaf=-0.0184907
							192:leaf=-0.0358095
						96:[f52<29] yes=193,no=194,missing=194
							193:leaf=-0.0301523
							194:leaf=-0.0477779
					48:[f40<0.325446] yes=97,no=98,missing=97
						97:[f3<47] yes=195,no=196,missing=196
							195:leaf=-0.0289524
							196:leaf=-0.00787189
						98:[f4<100] yes=197,no=198,missing=197
							197:leaf=0.00556039
							198:leaf=0.0516269
				24:[f40<0.190003] yes=49,no=50,missing=50
					49:[f0<7] yes=99,no=100,missing=100
						99:[f57<0.647398] yes=199,no=200,missing=200
							199:leaf=-0.0279179
							200:leaf=-0.0506864
						100:[f9<7] yes=201,no=202,missing=201
							201:leaf=-0.0469373
							202:leaf=-0.0663738
					50:[f68<12] yes=101,no=102,missing=101
						101:[f41<0.007518] yes=203,no=204,missing=204
							203:leaf=-0.0763424
							204:leaf=-0.0362237
						102:[f22<0.050565] yes=205,no=206,missing=206
							205:leaf=0.120986
							206:leaf=-0.0263563
			12:[f40<0.186726] yes=25,no=26,missing=26
				25:[f9<2] yes=51,no=52,missing=51
					51:[f0<16] yes=103,no=104,missing=104
						103:[f8<0.999999] yes=207,no=208,missing=208
							207:leaf=-0.0306431
							208:leaf=-0.0576619
						104:[f55<0.079497] yes=209,no=210,missing=210
							209:leaf=-0.0884558
							210:leaf=-0.0693102
					52:[f68<23] yes=105,no=106,missing=106
						105:[f48<24] yes=211,no=212,missing=212
							211:leaf=0.0204581
							212:leaf=-0.0542008
						106:[f0<16] yes=213,no=214,missing=214
							213:leaf=-0.0768217
							214:leaf=-0.0904933
				26:[f16<48139] yes=53,no=54,missing=53
					53:[f0<16] yes=107,no=108,missing=108
						107:[f48<46] yes=215,no=216,missing=216
							215:leaf=-0.0237335
							216:leaf=-0.0436139
						108:[f36<0.190351] yes=217,no=218,missing=217
							217:leaf=-0.0661534
							218:leaf=-0.0487348
					54:[f0<16] yes=109,no=110,missing=110
						109:[f13<4.5] yes=219,no=220,missing=219
							219:leaf=-0.0537842
							220:leaf=-0.0750736
						110:[f40<0.237384] yes=221,no=222,missing=222
							221:leaf=-0.0773215
							222:leaf=-0.0595714
		6:[f40<0.174877] yes=13,no=14,missing=14
			13:[f0<27] yes=27,no=28,missing=28
				27:[f68<27] yes=55,no=56,missing=56
					55:[f24<3.4e-05] yes=111,no=112,missing=112
						111:[f46<0.172413] yes=223,no=224,missing=223
							223:leaf=-0.12318
							224:leaf=-0.0316003
						112:[f26<760] yes=225,no=226,missing=226
							225:leaf=-0.060091
							226:leaf=-0.0891721
					56:[f0<23] yes=113,no=114,missing=114
						113:[f23<0.001782] yes=227,no=228,missing=227
							227:leaf=-0.0936153
							228:leaf=-0.111087
						114:[f36<0.127433] yes=229,no=230,missing=230
							229:leaf=-0.124324
							230:leaf=-0.111651
				28:[f0<34] yes=57,no=58,missing=58
					57:[f68<78] yes=115,no=116,missing=116
						115:[f26<2977] yes=231,no=232,missing=231
							231:leaf=-0.0923648
							232:leaf=-0.158584
						116:[f16<1714] yes=233,no=234,missing=233
							233:leaf=-0.121839
							234:leaf=-0.134029
					58:[f37<0.002469] yes=117,no=118,missing=117
						117:[f68<8] yes=235,no=236,missing=236
							235:leaf=-0.0504534
							236:leaf=-0.108013
						118:[f40<0.130628] yes=237,no=238,missing=238
							237:leaf=-0.130088
							238:leaf=-0.11287
			14:[f0<25] yes=29,no=30,missing=30
				29:[f40<0.216396] yes=59,no=60,missing=59
					59:[f70<7] yes=119,no=120,missing=120
						119:[f26<523] yes=239,no=240,missing=239
							239:leaf=-0.00260337
							240:leaf=-0.0869069
						120:[f61<86] yes=241,no=242,missing=241
							241:leaf=-0.0931664
							242:leaf=-0.124736
					60:[f68<78] yes=121,no=122,missing=122
						121:[f23<0.005128] yes=243,no=244,missing=243
							243:leaf=-0.0306003
							244:leaf=-0.104313
						122:[f16<87954] yes=245,no=246,missing=245
							245:leaf=-0.0721127
							246:leaf=-0.0909906
				30:[f22<0.053056] yes=61,no=62,missing=62
					61:[f16<31518] yes=123,no=124,missing=123
						123:[f68<9] yes=247,no=248,missing=248
							247:leaf=-0.0564209
							248:leaf=-0.104126
						124:[f0<34] yes=249,no=250,missing=250
							249:leaf=-0.121023
							250:leaf=-0.100279
					62:[f44<94] yes=125,no=126,missing=125
						125:[f40<0.257962] yes=251,no=252,missing=251
							251:leaf=-0.114886
							252:leaf=-0.0880712
						126:[f16<184] yes=253,no=254,missing=253
							253:leaf=-0.0422547
							254:leaf=-0.0891221
booster[10]:
0:[f1<751.161] yes=1,no=2,missing=2
	1:[f4<59] yes=3,no=4,missing=3
		3:[f22<0.024811] yes=7,no=8,missing=8
			7:[f1<138.688] yes=15,no=16,missing=16
				15:[f18<0.014039] yes=31,no=32,missing=31
					31:[f53<15] yes=63,no=64,missing=63
						63:[f34<0.161615] yes=127,no=128,missing=127
							127:leaf=-0.0317148
							128:leaf=0.0188044
						64:[f48<153] yes=129,no=130,missing=130
							129:leaf=0.0303347
							130:leaf=-0.0822529
					32:[f36<0.136382] yes=65,no=66,missing=66
						65:[f69<27] yes=131,no=132,missing=132
							131:leaf=0.057011
							132:leaf=0.0105057
						66:[f55<0.166666] yes=133,no=134,missing=134
							133:leaf=0.00238892
							134:leaf=-0.0643818
				16:[f22<0.014527] yes=33,no=34,missing=34
					33:[f53<22] yes=67,no=68,missing=67
						67:[f36<0.100883] yes=135,no=136,missing=136
							135:leaf=-0.0574641
							136:leaf=0.0158325
						68:[f67<0.576922] yes=137,no=138,missing=138
							137:leaf=0.097955
							138:leaf=-0.0140154
					34:[f69<27] yes=69,no=70,missing=70
						69:[f53<58] yes=139,no=140,missing=140
							139:leaf=0.0245521
							140:leaf=0.107076
						70:[f5<13] yes=141,no=142,missing=142
							141:leaf=-0.0313098
							142:leaf=-0.0175586
			8:[f1<117.212] yes=17,no=18,missing=18
				17:[f18<0.04265] yes=35,no=36,missing=35
					35:[f36<0.170862] yes=71,no=72,missing=71
						71:[f18<0.024053] yes=143,no=144,missing=144
							143:leaf=0.0173672
							144:leaf=0.0420041
						72:[f69<27] yes=145,no=146,missing=146
							145:leaf=0.0664876
							146:leaf=-0.000757289
					36:[f44<112] yes=73,no=74,missing=74
						73:[f60<5] yes=147,no=148,missing=147
							147:leaf=0.0189715
							148:leaf=0.0488695
						74:[f49<124] yes=149,no=150,missing=150
							149:leaf=0.0542607
							150:leaf=0.0855986
				18:[f18<0.044388] yes=37,no=38,missing=38
					37:[f36<0.144071] yes=75,no=76,missing=76
						75:[f22<0.027761] yes=151,no=152,missing=152
							151:leaf=-0.00102463
							152:leaf=0.0185942
						76:[f22<0.038332] yes=153,no=154,missing=154
							153:leaf=-0.0181649
							154:leaf=0.00344766
					38:[f36<0.198593] yes=77,no=78,missing=78
						77:[f22<0.038332] yes=155,no=156,missing=155
							155:leaf=0.00986679
							156:leaf=0.0421753
						78:[f22<0.063594] yes=157,no=158,missing=157
							157:leaf=-0.00254574
							158:leaf=0.033209
		4:[f1<227.159] yes=9,no=10,missing=10
			9:[f48<453] yes=19,no=20,missing=19
				19:[f18<0.04265] yes=39,no=40,missing=39
					39:[f69<2108] yes=79,no=80,missing=80
						79:[f37<0.004322] yes=159,no=160,missing=159
							159:leaf=0.0537178
							160:leaf=0.0854528
						80:[f1<117.212] yes=161,no=162,missing=162
							161:leaf=0.0384418
							162:leaf=0.0207168
					40:[f37<0.005017] yes=81,no=82,missing=81
						81:[f44<65] yes=163,no=164,missing=164
							163:leaf=0.0337481
							164:leaf=0.0598656
						82:[f60<22] yes=165,no=166,missing=166
							165:leaf=0.0826853
							166:leaf=0.0560906
				20:[f69<1054] yes=41,no=42,missing=42
					41:[f71<2] yes=83,no=84,missing=84
						83:[f3<46] yes=167,no=168,missing=168
							167:leaf=0.122282
							168:leaf=0.047478
						84:[f69<8] yes=169,no=170,missing=170
							169:leaf=0.0762509
							170:leaf=0.115136
					42:[f1<117.212] yes=85,no=86,missing=86
						85:[f24<0.000301] yes=171,no=172,missing=172
							171:leaf=0.0596859
							172:leaf=0.0773001
						86:[f22<0.035725] yes=173,no=174,missing=174
							173:leaf=0.0365229
							174:leaf=0.053928
			10:[f22<0.031248] yes=21,no=22,missing=22
				21:[f9<76] yes=43,no=44,missing=44
					43:[f69<53] yes=87,no=88,missing=88
						87:[f36<0.137842] yes=175,no=176,missing=176
							175:leaf=0.0515301
							176:leaf=-0.00751236
						88:[f27<482] yes=177,no=178,missing=178
							177:leaf=-0.0128477
							178:leaf=0.00687634
					44:[f64<2] yes=89,no=90,missing=89
						89:[f22<0.022395] yes=179,no=180,missing=180
							179:leaf=-0.0259329
							180:leaf=0.0137794
						90:[f60<162] yes=181,no=182,missing=181
							181:leaf=0.0282241
							182:leaf=0.101404
				22:[f32<5] yes=45,no=46,missing=45
					45:[f9<110] yes=91,no=92,missing=92
						91:[f18<0.045525] yes=183,no=184,missing=183
							183:leaf=0.0164743
							184:leaf=0.0341137
						92:[f18<0.059531] yes=185,no=186,missing=186
							185:leaf=0.0361224
							186:leaf=0.0579784
					46:[f44<40] yes=93,no=94,missing=94
						93:[f16<135074] yes=187,no=188,missing=188
							187:leaf=0.056635
							188:leaf=0.0866084
						94:[f45<14] yes=189,no=190,missing=190
							189:leaf=0.0757182
							190:leaf=0.0513255
	2:[f1<1712.52] yes=5,no=6,missing=6
		5:[f22<0.036229] yes=11,no=12,missing=11
			11:[f4<186] yes=23,no=24,missing=23
				23:[f22<0.024093] yes=47,no=48,missing=48
					47:[f22<0.01908] yes=95,no=96,missing=96
						95:[f16<221364] yes=191,no=192,missing=192
							191:leaf=-0.0649138
							192:leaf=-0.0361209
						96:[f28<43] yes=193,no=194,missing=194
							193:leaf=-0.0473894
							194:leaf=-0.0240326
					48:[f69<36] yes=97,no=98,missing=98
						97:[f71<2] yes=195,no=196,missing=196
							195:leaf=0.0705593
							196:leaf=0.0151034
						98:[f28<40] yes=197,no=198,missing=198
							197:leaf=-0.0361598
							198:leaf=-0.0194862
				24:[f32<4] yes=49,no=50,missing=49
					49:[f69<30] yes=99,no=100,missing=100
						99:[f69<4] yes=199,no=200,missing=200
							199:leaf=0.0213992
							200:leaf=0.0563633
						100:[f64<11] yes=201,no=202,missing=201
							201:leaf=-0.0146294
							202:leaf=0.0137546
					50:[f44<45] yes=101,no=102,missing=102
						101:[f9<81] yes=203,no=204,missing=204
							203:leaf=0.0110305
							204:leaf=0.0617572
						102:[f36<0.142267] yes=205,no=206,missing=206
							205:leaf=0.0165456
							206:leaf=-0.028888
			12:[f18<0.049786] yes=25,no=26,missing=25
				25:[f69<1054] yes=51,no=52,missing=52
					51:[f36<0.157901] yes=103,no=104,missing=104
						103:[f23<0.001169] yes=207,no=208,missing=207
							207:leaf=0.072176
							208:leaf=0.0365625
						104:[f69<9] yes=209,no=210,missing=210
							209:leaf=0.0173525
							210:leaf=0.0865292
					52:[f4<169] yes=105,no=106,missing=105
						105:[f44<76] yes=211,no=212,missing=212
							211:leaf=-0.0214187
							212:leaf=-0.000931586
						106:[f9<148] yes=213,no=214,missing=214
							213:leaf=-0.00179562
							214:leaf=0.0178403
				26:[f18<0.077066] yes=53,no=54,missing=54
					53:[f26<206] yes=107,no=108,missing=108
						107:[f36<0.214049] yes=215,no=216,missing=216
							215:leaf=0.0106919
							216:leaf=-0.0144062
						108:[f1<1310.61] yes=217,no=218,missing=218
							217:leaf=0.0257198
							218:leaf=0.0102659
					54:[f3<46] yes=109,no=110,missing=110
						109:[f44<108] yes=219,no=220,missing=220
							219:leaf=0.0357544
							220:leaf=0.0509571
						110:[f8<75] yes=221,no=222,missing=221
							221:leaf=0.0280992
							222:leaf=-0.0274701
		6:[f22<0.037194] yes=13,no=14,missing=14
			13:[f1<3000] yes=27,no=28,missing=28
				27:[f3<39] yes=55,no=56,missing=55
					55:[f18<0.011363] yes=111,no=112,missing=112
						111:[f45<60] yes=223,no=224,missing=223
							223:leaf=-0.10446
							224:leaf=0.111565
						112:[f48<131] yes=225,no=226,missing=225
							225:leaf=-0.0500872
							226:leaf=-0.0672449
					56:[f22<0.029264] yes=113,no=114,missing=114
						113:[f44<51] yes=227,no=228,missing=227
							227:leaf=-0.0349812
							228:leaf=-0.0575403
						114:[f67<0.623528] yes=229,no=230,missing=229
							229:leaf=-0.0139692
							230:leaf=-0.0351137
				28:[f67<0.674418] yes=57,no=58,missing=57
					57:[f16<31571] yes=115,no=116,missing=116
						115:[f22<0.024811] yes=231,no=232,missing=232
							231:leaf=-0.0869254
							232:leaf=-0.0586812
						116:[f4<88] yes=233,no=234,missing=234
							233:leaf=-0.0251339
							234:leaf=-0.0612299
					58:[f4<23] yes=117,no=118,missing=117
						117:[f16<31571] yes=235,no=236,missing=235
							235:leaf=-0.0648519
							236:leaf=-0.003039
						118:[f22<0.02975] yes=237,no=238,missing=238
							237:leaf=-0.0908047
							238:leaf=-0.0704052
			14:[f1<3000] yes=29,no=30,missing=30
				29:[f18<0.059531] yes=59,no=60,missing=60
					59:[f3<42] yes=119,no=120,missing=120
						119:[f53<27] yes=239,no=240,missing=239
							239:leaf=-0.0140053
							240:leaf=-0.0344271
						120:[f69<2] yes=241,no=242,missing=241
							241:leaf=-0.0131502
							242:leaf=0.0389619
					60:[f69<1054] yes=121,no=122,missing=122
						121:[f11<51] yes=243,no=244,missing=243
							243:leaf=0.0363389
							244:leaf=-0.0816039
						122:[f24<0.000181] yes=245,no=246,missing=246
							245:leaf=-0.0159054
							246:leaf=0.00328267
				30:[f49<298] yes=61,no=62,missing=61
					61:[f28<41] yes=123,no=124,missing=124
						123:[f27<15] yes=247,no=248,missing=248
							247:leaf=-0.0174937
							248:leaf=-0.0524495
						124:[f26<1505] yes=249,no=250,missing=249
							249:leaf=-0.021713
							250:leaf=0.0512556
					62:[f18<0.057346] yes=125,no=126,missing=126
